<?xml version="1.0"?>
<MethodSetup Method="MLP::MLPBNN">
  <GeneralInfo>
    <Info name="TMVA Release" value="4.2.0 [262656]"/>
    <Info name="ROOT Release" value="5.34/09 [336393]"/>
    <Info name="Creator" value="rute"/>
    <Info name="Date" value="Sun Sep 11 13:55:54 2016"/>
    <Info name="Host" value="Linux ui6-atlas.lip.pt 2.6.32-358.6.2.el6.x86_64 #1 SMP Thu May 16 20:59:36 UTC 2013 x86_64 x86_64 x86_64 GNU/Linux"/>
    <Info name="Dir" value="/u/home/calo/rute/EstagioATLAScoded/TMVAproject"/>
    <Info name="Training events" value="6000"/>
    <Info name="TrainingTime" value="1.14167528e+01"/>
    <Info name="AnalysisType" value="Classification"/>
  </GeneralInfo>
  <Options>
    <Option name="NCycles" modified="Yes">60</Option>
    <Option name="HiddenLayers" modified="Yes">N+5</Option>
    <Option name="NeuronType" modified="Yes">tanh</Option>
    <Option name="RandomSeed" modified="No">1</Option>
    <Option name="EstimatorType" modified="No">MSE</Option>
    <Option name="NeuronInputType" modified="No">sum</Option>
    <Option name="V" modified="Yes">False</Option>
    <Option name="VerbosityLevel" modified="No">Default</Option>
    <Option name="VarTransform" modified="Yes">N</Option>
    <Option name="H" modified="Yes">True</Option>
    <Option name="CreateMVAPdfs" modified="No">False</Option>
    <Option name="IgnoreNegWeightsInTraining" modified="No">False</Option>
    <Option name="TrainingMethod" modified="Yes">BFGS</Option>
    <Option name="LearningRate" modified="No">2.000000e-02</Option>
    <Option name="DecayRate" modified="No">1.000000e-02</Option>
    <Option name="TestRate" modified="Yes">5</Option>
    <Option name="EpochMonitoring" modified="No">False</Option>
    <Option name="Sampling" modified="No">1.000000e+00</Option>
    <Option name="SamplingEpoch" modified="No">1.000000e+00</Option>
    <Option name="SamplingImportance" modified="No">1.000000e+00</Option>
    <Option name="SamplingTraining" modified="No">True</Option>
    <Option name="SamplingTesting" modified="No">False</Option>
    <Option name="ResetStep" modified="No">50</Option>
    <Option name="Tau" modified="No">3.000000e+00</Option>
    <Option name="BPMode" modified="No">sequential</Option>
    <Option name="BatchSize" modified="No">-1</Option>
    <Option name="ConvergenceImprove" modified="No">1.000000e-30</Option>
    <Option name="ConvergenceTests" modified="No">-1</Option>
    <Option name="UseRegulator" modified="Yes">True</Option>
    <Option name="UpdateLimit" modified="No">10000</Option>
    <Option name="CalculateErrors" modified="No">False</Option>
    <Option name="WeightRange" modified="No">1.000000e+00</Option>
  </Options>
  <Variables NVar="4">
    <Variable VarIndex="0" Expression="var1+var2" Label="myvar1" Title="myvar1" Unit="" Internal="myvar1" Type="F" Min="-8.96602058e+00" Max="7.69307804e+00"/>
    <Variable VarIndex="1" Expression="var1-var2" Label="myvar2" Title="Expression 2" Unit="" Internal="myvar2" Type="F" Min="-4.08540010e+00" Max="4.02589369e+00"/>
    <Variable VarIndex="2" Expression="var3" Label="var3" Title="Variable 3" Unit="units" Internal="var3" Type="F" Min="-5.05078554e+00" Max="4.35967064e+00"/>
    <Variable VarIndex="3" Expression="var4" Label="var4" Title="Variable 4" Unit="units" Internal="var4" Type="F" Min="-5.95050764e+00" Max="4.92254400e+00"/>
  </Variables>
  <Spectators NSpec="2">
    <Spectator SpecIndex="0" Expression="var1*2" Label="spec1" Title="Spectator 1" Unit="units" Internal="spec1" Type="F" Min="-9.91655540e+00" Max="9.52782059e+00"/>
    <Spectator SpecIndex="1" Expression="var1*3" Label="spec2" Title="Spectator 2" Unit="units" Internal="spec2" Type="F" Min="-1.48748331e+01" Max="1.42917309e+01"/>
  </Spectators>
  <Classes NClass="2">
    <Class Name="Signal" Index="0"/>
    <Class Name="Background" Index="1"/>
  </Classes>
  <Transformations NTransformations="1">
    <Transform Name="Normalize">
      <Selection>
        <Input NInputs="4">
          <Input Type="Variable" Label="myvar1" Expression="var1+var2"/>
          <Input Type="Variable" Label="myvar2" Expression="var1-var2"/>
          <Input Type="Variable" Label="var3" Expression="var3"/>
          <Input Type="Variable" Label="var4" Expression="var4"/>
        </Input>
        <Output NOutputs="4">
          <Output Type="Variable" Label="myvar1" Expression="var1+var2"/>
          <Output Type="Variable" Label="myvar2" Expression="var1-var2"/>
          <Output Type="Variable" Label="var3" Expression="var3"/>
          <Output Type="Variable" Label="var4" Expression="var4"/>
        </Output>
      </Selection>
      <Class ClassIndex="0">
        <Ranges>
          <Range Index="0" Min="-5.0562591552734375e+00" Max="6.3994679450988770e+00"/>
          <Range Index="1" Min="-4.0854001045227051e+00" Max="3.4012691974639893e+00"/>
          <Range Index="2" Min="-3.1826326847076416e+00" Max="3.8475654125213623e+00"/>
          <Range Index="3" Min="-2.9959020614624023e+00" Max="4.5351858139038086e+00"/>
        </Ranges>
      </Class>
      <Class ClassIndex="1">
        <Ranges>
          <Range Index="0" Min="-8.9660205841064453e+00" Max="7.6930780410766602e+00"/>
          <Range Index="1" Min="-3.6791675090789795e+00" Max="4.0258936882019043e+00"/>
          <Range Index="2" Min="-5.0507855415344238e+00" Max="4.3596706390380859e+00"/>
          <Range Index="3" Min="-5.9505076408386230e+00" Max="4.9225440025329590e+00"/>
        </Ranges>
      </Class>
      <Class ClassIndex="2">
        <Ranges>
          <Range Index="0" Min="-8.9660205841064453e+00" Max="7.6930780410766602e+00"/>
          <Range Index="1" Min="-4.0854001045227051e+00" Max="4.0258936882019043e+00"/>
          <Range Index="2" Min="-5.0507855415344238e+00" Max="4.3596706390380859e+00"/>
          <Range Index="3" Min="-5.9505076408386230e+00" Max="4.9225440025329590e+00"/>
        </Ranges>
      </Class>
    </Transform>
  </Transformations>
  <MVAPdfs/>
  <Weights>
    <Layout NLayers="3">
      <Layer Index="0" NNeurons="5">
        <Neuron NSynapses="9">
          1.5897153796546398e-01 2.0668198301190421e+00 8.3797000409884514e-01 8.7346292838171224e-01 -1.5864522691177003e+00 -1.0665834041984938e+00 -5.5660139806665221e-01 1.5348342402391566e+00 -1.5917000401890771e+00 
        </Neuron>
        <Neuron NSynapses="9">
          -8.6957297103723463e-02 -1.4662244040884325e+00 -5.6675621403712739e-01 -7.6217908731541217e-01 -1.0765023799340884e-01 -2.7644763898586566e-01 3.8883507085726104e-01 -1.5708124166410370e-01 1.6750002456283810e+00 
        </Neuron>
        <Neuron NSynapses="9">
          4.5997102980730409e-01 1.2931418802791437e+00 -5.8007026301221842e-01 -1.1768000711016751e+00 -6.6696715412321514e-02 -4.1067085426776373e-01 -9.2985624136374367e-01 -6.2766157063368966e-01 9.9658894900173223e-01 
        </Neuron>
        <Neuron NSynapses="9">
          -6.8037572197150464e-01 -1.7430404735237943e+00 2.2884492683371921e-01 4.0131060091368398e-01 2.5161411705690475e+00 4.5388633168537817e-01 1.8175749484949819e-01 -1.0835914388953700e-01 -9.9704386460743200e-02 
        </Neuron>
        <Neuron NSynapses="9">
          -1.3624767614066478e+00 2.0106048124460534e+00 -1.0160982522388404e+00 9.8068831759600761e-01 -2.4159080159627247e-01 1.0037538576944258e+00 2.1333683160898729e+00 1.7631743749350288e+00 -1.1886343202065159e+00 
        </Neuron>
      </Layer>
      <Layer Index="1" NNeurons="10">
        <Neuron NSynapses="1">
          -1.2849789724621814e+00 
        </Neuron>
        <Neuron NSynapses="1">
          4.4921698909759039e-01 
        </Neuron>
        <Neuron NSynapses="1">
          3.4340053327800157e-01 
        </Neuron>
        <Neuron NSynapses="1">
          1.2092763315624775e+00 
        </Neuron>
        <Neuron NSynapses="1">
          1.4493350738235944e+00 
        </Neuron>
        <Neuron NSynapses="1">
          1.0565310327891517e+00 
        </Neuron>
        <Neuron NSynapses="1">
          1.1187520462257514e+00 
        </Neuron>
        <Neuron NSynapses="1">
          -1.2175334048108175e+00 
        </Neuron>
        <Neuron NSynapses="1">
          6.5633697377230593e-01 
        </Neuron>
        <Neuron NSynapses="1">
          -1.8001718880048807e+00 
        </Neuron>
      </Layer>
      <Layer Index="2" NNeurons="1">
        <Neuron NSynapses="0"/>
      </Layer>
    </Layout>
    <InverseHessian NElements="3025" NRows="55" NCols="55">
      <Row Index="0">
        3.6028464360461858e+03 3.7420680582476029e+02 5.4908689536489635e+02 -1.5442797727077613e+02 -7.2315623563580829e+00 9.5137115983465591e+01 2.9401644188812668e+02 2.8848433126797472e+03 -1.1795612483989615e+02 -9.8411124892683767e+02 -7.5742809714491045e+01 5.5386450743259488e+01 1.2523413677713830e+02 1.6562509315959918e+01 -4.4345905805459722e+01 -2.1190774640456244e+01 -4.1544281470126811e+02 1.4649571593864692e+02 -1.6816711138676499e+03 8.3237974187637491e+01 1.0893407069147484e+03 -1.8897367854225993e+02 1.0479238668918882e+01 4.6099636733110167e+01 2.7979455615848337e+02 -2.5476711153960130e+02 1.6549032332159240e+02 -1.2087990867229236e+02 -3.2378267106484020e+02 -1.9143996089957525e+03 3.2360561003111309e+02 -4.5867758726720098e+01 -1.9763797367726812e+02 -5.2216290362121447e+02 -1.3978431999252462e+03 -1.1523765095988692e+02 -9.7674934183021458e+02 1.1028169028884432e+02 4.7350761266495482e+02 -6.4077351145254170e+01 -9.3087347911966525e+00 5.2820299091955405e+01 1.2168386055073924e+01 -2.0216334198826439e+02 -4.0810621381946177e+01 -1.7369044049971137e+03 -6.5327368432723915e+01 6.4294671638381840e+02 1.7233207820603070e+01 6.4429344988006477e+01 -1.7066315676247123e+02 2.3909606959909746e+02 5.8808322261825451e+03 -2.2646066076524718e+02 -7.1554490768583764e+03 
      </Row>
      <Row Index="1">
        3.7420679846082345e+02 1.9624921222051995e+02 -7.4680551594477862e+01 7.3726275795068105e+01 -6.9411664912715869e+00 1.7546837836084755e+01 1.1405160647520506e+02 2.9704769039536995e+02 -5.4409998136005839e+01 -1.0767349281526330e+02 -6.1837126614458050e+01 5.6505607385746387e+01 -6.6842743834493191e+01 2.0516102251058563e+00 -4.2231375015244765e+00 -6.2597575155291551e+01 -4.3770709101398722e+01 6.2730892279426641e+01 -1.5667478313606000e+02 1.3323754896880644e+02 2.6157659490305082e+02 -1.1268923540377676e+02 -2.2834719159990775e+00 -2.6992928894481816e+00 1.0137859171027721e+02 -2.3264150462893807e+00 1.0390101911713879e+02 1.2033933988149194e+01 -2.1185919518788461e+02 -2.1761343598430855e+02 7.1566846752718831e+01 4.6605902149256506e+00 -1.6068161361369217e+01 -9.8409726016723795e+01 -1.7204762466961608e+02 -5.4365609316080423e+01 -1.1892570782631009e+02 9.4380085136214362e+01 2.2685920266085333e+02 5.2449250954345752e+00 -1.2660728758581719e+00 1.9892670915718185e+00 1.3428172255507896e+01 2.2647439835970609e+01 -1.1586505551429171e+01 -3.0276058461444870e+02 -6.3909619498127036e+01 1.2995622461879296e+02 -1.9436328754125992e+02 -3.8447058238335958e+00 -9.2108163896082775e+00 3.6738409984150553e+02 4.9466983710012573e+02 -7.2072718288726875e+01 -9.0233660565565458e+02 
      </Row>
      <Row Index="2">
        5.4908701163535954e+02 -7.4680535863747721e+01 3.9328649408066290e+03 -2.0310310902066377e+02 1.1389228457620777e+02 -1.1172386390547010e+02 -2.2819796149785165e+02 9.2981791274562647e+02 -2.4797172423074110e+02 5.3350418323427732e+01 5.7250345271316633e+01 -2.4750527616178674e+03 4.3514955736235572e+02 4.2586271449152173e+00 -6.3511585733060741e+01 1.2554399246641542e+02 -2.6867251295421011e+02 1.3072161189377280e+02 5.1610768796373100e+02 -2.4740106671737209e+01 -3.3734140906369744e+03 3.6546325987289083e+02 8.4516720729019035e-01 -6.2016281357758722e+01 -2.7165641035554341e+02 -5.3875033269539426e+02 -5.2288251852609008e+01 -1.3380227289546640e+03 4.2743072465336496e+01 6.4654759172687932e+02 -3.2134570673464083e+02 -1.5406936943160099e+02 6.9798537708017363e+01 2.5858323362818396e+02 6.0900433565611110e+00 1.5225378103528439e+02 7.1148061297842241e+02 -7.8128255150716825e+01 -1.2799920318431812e+03 -1.9956593680601136e+02 -8.8255233439476655e-01 6.5153546114589204e+01 -7.4625248406798534e+01 -2.9505272337850027e+02 -7.8519544687795459e+01 5.0310576192959770e+03 3.1335179470547615e+01 -2.3459746553987652e+03 7.7335550755458223e+02 2.3039489913512455e+02 -3.2445521194216400e+02 -9.4476138575098446e+02 2.2261160287318953e+03 -1.9016237062346536e+02 1.4127235509178734e+03 
      </Row>
      <Row Index="3">
        -1.5442798801457656e+02 7.3726273688278013e+01 -2.0310310376711158e+02 5.8629849472564501e+02 -1.4357180889034915e+01 1.2164692182061650e+02 1.7752543209698729e+02 -6.2246600133609377e+01 -3.5818129031437715e+00 2.0120949057396732e+02 -1.5434313247575632e+01 3.7678113090839446e+02 -3.8494620065244936e+02 -7.0517812324351015e+00 2.7090615080954350e+01 -1.0588696276237887e+02 -3.6040129608808456e+01 -8.8847056755031844e+01 2.2144953336220246e+02 1.3930644155089129e+02 6.1682662710264435e+02 -1.9230843461025290e+02 -7.4854423023728982e+00 -4.4773436248048011e+00 -1.9574458266591279e+01 3.6250368575355203e+01 1.2546637678705240e+02 1.2482406970198900e+02 -1.3010938702876069e+02 -3.0010832505494244e+02 -1.3798614406374969e+02 2.3779863672739399e+01 -4.9309866780870557e+01 -6.7860235241600748e+01 -1.5779118174127703e+01 -2.9402477664865479e+01 4.4173633951835649e+02 7.6869576760015065e+01 5.8154171046181898e+02 1.0109872235160935e+02 -2.4632497423246651e+00 -2.6890895639221501e+01 1.5896282900465353e+01 3.8206574036627032e+01 3.4646065346959944e+01 -4.0588492200020511e+02 -4.3822154896749950e+01 1.9677899535641305e+02 -4.4355868164345520e+02 -2.9529942100529023e+01 2.5069730767100501e+02 2.6792040413218768e+02 -3.5022275726242447e+02 1.8852516504305930e+02 2.0587564051455087e+02 
      </Row>
      <Row Index="4">
        -7.2315487097793314e+00 -6.9411649528240096e+00 1.1389228649223030e+02 -1.4357181639819903e+01 9.8014148182526331e+00 -5.3887605346674530e+00 -1.3300698207457117e+01 3.3321492042346563e+01 -4.3721214476358616e+00 1.0373436796345290e+00 1.2792895352243745e+00 -7.0109885361226858e+01 2.1341602900175701e+01 3.3940262055844617e-01 -1.7647839838562338e+00 5.3014624761701725e+00 -2.9711844618941541e+00 -1.3350439195454916e-01 6.9252203947854838e+01 -1.0211429965484809e+01 -1.3205684966957887e+02 1.9370406372390274e+01 3.8488861593008161e-01 -2.6030168521235453e+00 -9.2693110500917815e+00 -1.9809121571351920e+01 -9.9373859110254124e+00 -9.4200381511887556e+01 1.1584646733636673e+01 4.3403806663501079e+01 -1.6633589346249813e+01 -1.1593112429772109e+01 8.0353375601593306e+00 1.3781930858872755e+01 -6.2504926340699374e-01 9.6759752557913306e+00 1.1740712936845215e+02 -4.9058740779648398e+00 -6.6022969358481419e+01 -8.0132475181448317e+00 6.5570603837265129e-01 -6.7560098698657089e-01 3.8409634037604659e+00 -1.8018831514734870e+01 -1.2596308054309018e+00 5.4977424126642586e+02 3.2075325211368142e+00 -7.5489589205784199e+01 3.4512488611053826e+01 1.3457548092550851e+01 -7.6660782417763915e+00 -2.6375530057573020e+01 8.4867477997749816e+01 -2.8696812370536779e+00 3.9284077469783404e+02 
      </Row>
      <Row Index="5">
        9.5137105015554042e+01 1.7546837450578050e+01 -1.1172388013860552e+02 1.2164692358478551e+02 -5.3887623455193534e+00 1.2319037841972376e+02 3.7527410828075517e+01 3.3422344746236877e+02 -5.2375540289851719e+00 2.5212568653398467e+01 -3.0445930566187895e+00 1.0950544815551702e+02 -9.6408760085566684e+01 -1.0092308977166846e+00 4.1533152767893800e+00 -4.3120725726612363e+00 -3.1733188723985222e+01 -4.4085562336602901e+00 -6.2867744084519352e+01 4.7268870488932819e+00 2.2568005747947254e+02 -7.3948658061478142e+01 -4.6577749929219908e-01 -1.4907423623779190e+01 -3.6464411986500018e+01 -4.6722044171525312e+01 2.4940449938038167e+01 8.6170821441645259e+01 -1.3961244504827249e+01 -9.9920369765296599e+01 1.2088525962115554e+01 6.3625248985505660e+00 -4.7638734361739928e+01 -2.2393008131402830e+01 -9.0561132472062894e+01 -8.9379172316040503e+00 -1.4533698741302294e+02 8.1520772492772817e+00 1.9552641138466987e+02 3.5260551093753719e+01 -8.9870986647189111e-01 -2.2515922770069213e+01 -1.0427628962951264e+01 -8.5678988234232094e+01 -2.4712648232162859e-01 -7.5553806698065989e+02 -2.3527453761234525e+00 5.9916073514237127e+01 -2.0021889824471160e+02 -9.8969581204429904e+00 1.3938493783900606e+02 -9.4176740068836708e+01 8.3496921714384507e+02 2.3379101042637089e+01 -1.3374705110464095e+03 
      </Row>
      <Row Index="6">
        2.9401644800426783e+02 1.1405160804928818e+02 -2.2819798020117474e+02 1.7752543430910288e+02 -1.3300700187538723e+01 3.7527413617330922e+01 2.5936984027780636e+02 2.8131240403942252e+02 2.5815382167913771e+01 -4.1881712626245424e+01 -6.0234995135849395e+01 1.9682533033349102e+02 -1.5708908876958267e+02 -3.6616633092882855e-01 2.2279348797888354e-01 -1.2596854732341217e+02 -4.7018198328176368e+01 -2.2518959456144792e+01 8.4386508515274514e+01 1.2478645862380881e+02 4.4640870630632884e+02 -7.3114943777109914e+01 -8.2542861250051534e+00 -3.1187400273208681e+00 1.5142801760081250e+02 -4.3411229991395132e+01 6.6497239302877460e+01 -1.4331434409365031e+02 -1.4487807447122256e+02 -1.9061546274584381e+02 9.2118540086108585e+00 1.5066445112019085e+01 -2.0946683736782660e+01 -1.9275985045631163e+02 -1.1204500372035548e+02 -5.6549432021436189e+01 1.8265313959846154e+02 8.5225737716695988e+01 3.6618208488187776e+02 5.3929292682553204e+01 -3.2057033188828985e+00 -5.1364666945467903e+00 6.9956792886832361e+01 -3.5978285222999190e+01 9.1598585317763437e+00 4.1151427194349492e+02 -5.5586957497924423e+01 1.7048326467499018e+02 -1.6195586238499024e+02 -1.1466589762724546e+01 3.9861437228874287e+01 7.6261195599126438e+02 5.9846228683633342e+02 5.8558996620176089e+01 -6.5531663271593607e+02 
      </Row>
      <Row Index="7">
        2.8848433287893431e+03 2.9704770506989422e+02 9.2981771565774181e+02 -6.2246582983065352e+01 3.3321468527763500e+01 3.3422346838134274e+02 2.8131239573936909e+02 4.4458192805072104e+03 -6.0275162372744951e+01 -5.5485344694550031e+02 -6.8943881852622383e+01 -3.8750261477449016e+02 -5.2318216155312456e+01 1.0645748205799684e+01 -5.7403407875409165e+01 -2.7630658280831994e+01 -4.7097062554728473e+02 1.0082265814370773e+02 -9.2850106443971401e+02 -2.6045826637659047e+01 3.5344869820992221e+02 -1.3908522153589894e+02 -4.7264332335556314e-01 -1.6066329700219990e+00 1.4530055530469031e+02 -7.3648347073581226e+02 7.9801437945162832e+01 -4.6130334630996180e+02 -1.9095187480417786e+02 -1.0981516874119345e+03 1.7715476055500875e+02 -7.3341342267807079e+01 -2.1425606648870107e+02 -4.1871806953054238e+02 -1.5596008227065861e+03 -5.3944382130167682e+01 -1.4474722249498282e+03 7.2266901010362233e+01 1.3947336448379559e+02 -1.6878485004072346e+00 -6.0879868844084948e+00 -5.0346168829783352e+01 -8.8986205707359176e+01 -1.1944153270864956e+03 -5.3600493015140984e+01 -2.1675408306536428e+03 -1.8175098033712842e+01 -6.5620608592270543e+01 -3.2546004744199155e+02 1.0157298193232600e+02 4.5430334337732866e+01 -3.2705734300946531e+01 1.0816478184935158e+04 -9.9075117454040878e+01 -1.2512404417240359e+04 
      </Row>
      <Row Index="8">
        -1.1795611197913497e+02 -5.4409996930870776e+01 -2.4797172144782135e+02 -3.5818135722634263e+00 -4.3721213420719778e+00 -5.2375522703734445e+00 2.5815383777725856e+01 -6.0275139788390788e+01 1.2562309897363015e+02 2.5679557285297719e+01 1.5864442289043177e+01 1.3386840568453408e+02 -5.3548161797897336e+01 -4.4979223117776745e-01 -3.0552194420508845e+00 -2.0115993251808504e+01 8.7962529693904798e+00 -1.0427204834757106e+02 8.8344273243041812e+01 -4.6541439475035077e+01 1.2657196513600384e+02 4.1097660475362318e+01 -4.6979397301898840e-01 1.1265370670181666e+01 3.5552852555925945e+01 1.5280006083276851e+01 -2.9121716537214589e+01 -2.3485677391767425e+01 7.4990193384758243e+01 6.8507207479394935e+01 -3.4042967251774758e+00 7.3082016395011706e+00 3.1532563812362430e-01 1.1490910006522963e+00 3.3180641215505808e+01 -3.9427735176518688e+01 2.0588716381303874e+02 -1.4953053425748347e+01 -1.7264872641700954e+01 1.8101633167331745e+01 2.9585149932433763e-01 -5.0834464938236383e+00 -3.4021478896805760e+01 -3.5873478397051144e+01 3.1670866535174731e+01 5.1980013722041872e+02 2.4588321816636991e+01 1.0684655535038738e+02 1.3117115888745559e+02 -1.0917094811553909e+01 -6.5253931820502400e+00 1.5361241101425998e+02 -4.0557640776546222e+01 1.4719916748389906e+02 4.7590524350646865e+02 
      </Row>
      <Row Index="9">
        -9.8411127210426662e+02 -1.0767349658486918e+02 5.3350434819946450e+01 2.0120949005409898e+02 1.0373460076543779e+00 2.5212563713004894e+01 -4.1881714805818774e+01 -5.5485348407902654e+02 2.5679559629693131e+01 4.7610766527115987e+02 2.7189299434992808e+01 1.0696820826882210e+01 -1.1476534464561354e+02 -1.0083426159515181e+01 1.6190286840460743e+01 -2.8265775367222432e+01 2.3177882654681525e+01 -6.5442491104573492e+01 6.3611167801419992e+02 -6.0355066084639930e+01 -3.2655352411315835e+02 5.1353868227985458e+01 -7.2393863762219830e+00 1.8114689609684191e+01 -7.7731229239453555e+01 -2.6929634938200682e+01 -4.6980332379307669e+01 -5.9939874317265804e+01 1.2764005043852363e+02 5.7451822579281793e+02 -1.8384456360405929e+02 1.6166751829471774e+01 -1.4607642881674847e+01 1.4604533281369979e+02 3.5843335017000521e+02 5.2875356532572511e+01 1.4472871137467394e+01 -3.4446728397082794e+01 -1.0926103255336943e+02 6.4303960666260139e+01 -3.0450565215635961e-01 -1.4409214810531175e+01 -4.3568910954814811e+01 -3.2029300892436083e+01 1.1353371368905783e+01 -4.8851835072170877e+02 3.2204331550626222e+01 -2.8009070249028917e+02 -7.5302704542138713e+01 -1.5354485257893003e+01 1.0284469764462021e+02 -6.1269047717804810e+00 -1.0519283399759986e+03 1.2160317134656636e+02 3.8849565306837809e+02 
      </Row>
      <Row Index="10">
        -7.5742803098710098e+01 -6.1837126263637266e+01 5.7250352620819626e+01 -1.5434314436197228e+01 1.2792901572730671e+00 -3.0445927369454653e+00 -6.0234994131664735e+01 -6.8943869555831498e+01 1.5864442688487543e+01 2.7189297316449110e+01 5.6147882697613248e+01 -2.4114500343695976e+01 2.2236663759431959e+01 -6.6713659755458288e-01 1.6035684219925432e+00 3.0172644175642745e+01 -3.6046554882796045e+00 -3.2765384603230949e+01 -2.5725295870306411e+01 -6.3310654625536245e+01 -7.1150391535770169e+01 4.3383423681109889e+01 2.2088991754927010e+00 3.2085160581023175e+00 -5.8273327456332474e+01 3.1071918009777868e+01 -3.5655996541815284e+01 4.9326718445632558e+01 7.3925942481631466e+01 1.6398647312550025e+01 -3.2320730083612091e+01 -1.0567562378676971e+00 -5.2165657670258092e-01 5.6278884101231768e+01 1.2400120794048149e+01 2.4395294888323576e+01 1.5400710943520633e+02 -4.8820147763014937e+01 -8.4750323246792391e+01 -9.1531111895710140e+00 3.0561241191710947e-01 3.3151238191465260e-01 -1.8210887316696912e+01 -8.2194943222942349e+00 1.0100411047926809e+01 1.9696083036063840e+02 3.6111817185621611e+01 -3.6067920214556587e+01 8.6759080178801895e+01 -8.2375992791088493e-01 4.5395299806754057e+00 -2.1024757210092355e+02 -1.4997584994784680e+02 3.5721276656161820e+01 4.7792660973160861e+02 
      </Row>
      <Row Index="11">
        5.5386357130312994e+01 5.6505595312259757e+01 -2.4750527709624371e+03 3.7678113580926498e+02 -7.0109885001577823e+01 1.0950543601081351e+02 1.9682531453316551e+02 -3.8750277474783888e+02 1.3386840668607510e+02 1.0696836140097004e+01 -2.4114495001529576e+01 2.1166705778430496e+03 -3.4203845124064850e+02 -5.2645397035612191e+00 8.6183185975725991e+01 -1.2234457493936316e+02 9.1377629579539644e+01 -1.1780281738806036e+02 -3.8783474650906567e+02 1.6462113807865535e+01 2.8470889892778077e+03 -2.5586900756788236e+02 1.7668806599778617e+00 1.2572724704842165e+02 1.7114157971817519e+02 3.5438121614341605e+02 2.4386458383884591e+01 8.6824558051665213e+02 -3.1352946435671125e+01 -1.0925562460472163e+03 7.6009226273550922e+01 8.5964463399259671e+01 -1.4182235342301635e+02 -2.1907562654327009e+02 -1.8666123258936085e+02 -5.4683897918911093e+01 -5.6872498530537246e+02 5.1441031833988170e+01 1.1463052687782706e+03 1.8660132444315309e+02 -1.4322243672489818e+00 -4.9423257690371940e+01 5.7082294221861233e+01 1.9267322848864166e+02 6.4508855473802100e+01 -4.2051415042373683e+03 -1.8648778622886276e+01 1.8774077730963481e+03 -5.7927915392547811e+02 -1.3175782623016448e+02 3.8037542920929491e+02 6.2480054691900318e+02 -1.2185635256365626e+03 1.6192480223554216e+02 -1.8332607108912423e+03 
      </Row>
      <Row Index="12">
        1.2523415109936509e+02 -6.6842741996589965e+01 4.3514956254982701e+02 -3.8494620185082550e+02 2.1341603279679703e+01 -9.6408758747619913e+01 -1.5708908570700578e+02 -5.2318191444209333e+01 -5.3548161489289441e+01 -1.1476534769617328e+02 2.2236662985533258e+01 -3.4203845441898881e+02 3.3931653570470462e+02 4.5415072933111311e+00 -1.6272461096283770e+01 8.9495967093159379e+01 4.4360543923212390e+00 7.7558146735597987e+01 -8.0926618706446959e+01 -1.1659287491395662e+02 -6.2768571950001194e+02 1.7975876311454863e+02 5.5011439059353764e+00 5.6246647871152629e+00 -3.9848773995619908e+01 -3.9007791528804994e+01 -1.1505637288947322e+02 -2.0999422904901715e+02 1.0939228206337748e+02 1.9340455736787163e+02 2.7291055296654040e+01 -3.1100316019470860e+01 3.6012951582658474e+01 8.3560101583923057e+01 4.4619085763864128e+01 7.2326405343815608e+01 -2.4742472917919929e+02 -7.4077132312585718e+01 -4.6754011680690513e+02 -7.6320595694843718e+01 1.5547445364792818e+00 2.6329712073754624e+01 1.2588055316849101e-01 1.5648440313643655e+00 -3.2995230854159161e+01 6.7444617823342128e+02 3.7957848490165667e+01 -2.6483052958573990e+02 3.9106145623074235e+02 4.1954309945389241e+01 -1.5910741600294136e+02 -3.4043735717489176e+02 -8.5198445278549684e+01 -1.6728571758504657e+02 4.8841979306377834e+02 
      </Row>
      <Row Index="13">
        1.6562508238093809e+01 2.0516101521575147e+00 4.2586264357005659e+00 -7.0517811251998870e+00 3.3940255571431521e-01 -1.0092309967663549e+00 -3.6616649149289060e-01 1.0645746256261702e+01 -4.4979228227470003e-01 -1.0083425865556068e+01 -6.6713658931439568e-01 -5.2645392339826103e+00 4.5415072549205888e+00 4.6921514274154652e-01 -3.6216036334055196e-01 1.9472551382546044e+00 2.9214489522223630e-01 1.5926162141304763e+00 -1.4301546573696273e+01 9.2198087324169364e-01 -1.8260890189587105e+00 6.8613661939991744e-02 1.6190678697014374e-01 -5.3728554114884797e-01 8.3889734875564614e-01 -8.7203656096328497e-01 4.9528334389049800e-01 2.3237961736461723e+00 -2.7174191167493973e+00 -8.1311440107026840e+00 4.0991515932505793e+00 -8.5542586911302787e-01 1.1701116598754222e+00 -3.0092897537723768e+00 -5.2119632282586172e+00 -1.0493007694038072e+00 -3.1865708402120841e+01 3.3933524791257985e-01 -3.1849375828516315e+00 -2.3064418892534233e+00 3.8176040040308126e-02 9.2608909539380446e-02 5.0577823394737242e-01 -6.8482225007581277e-01 -3.3994443963802001e-01 -5.0825533458448056e+01 -6.0189017283005219e-01 1.9422920411588613e+00 4.6325739447890779e+00 1.0287850350519392e+00 -2.5258426007819463e+00 -5.7850333845527775e+00 2.3939493637868239e+01 -3.1994832573252543e+00 -7.1376872424224132e+01 
      </Row>
      <Row Index="14">
        -4.4345908855128030e+01 -4.2231380662676008e+00 -6.3511583519437011e+01 2.7090614938908811e+01 -1.7647837038950343e+00 4.1533146500987765e+00 2.2279301109028893e-01 -5.7403412763497926e+01 -3.0552191883187447e+00 1.6190286887374270e+01 1.6035687345140559e+00 8.6183183947857074e+01 -1.6272460628711769e+01 -3.6216039741114714e-01 1.3023535283771636e+01 3.2315592873620744e+00 7.9816812408830629e+00 3.3057157282198962e-01 4.0316295151341537e+00 8.1786430000624364e+00 1.0951383681702175e+02 -1.1187177345682301e+01 3.0320366076519745e-01 9.4932877080713887e+00 -1.4742482246395493e+01 1.8287222428557779e+01 3.2898677220240278e+00 4.7352086128897895e+01 -2.9207061644833914e+00 -4.9675552040211450e+01 -7.6948681729959878e+00 2.4221018624856936e+00 -7.5561513501035664e+00 -2.4930930126741799e+00 8.7992798726478192e+00 2.3683451231620882e+00 1.8056576676172636e+01 1.1867657580814139e+00 5.2454457746963726e+01 8.2840175376316516e+00 2.1172087488431685e-01 -2.5584803722548606e+00 1.1559167383875215e+01 1.0098079380245720e+01 1.5617190391415394e+00 -1.4103020308225024e+02 -2.1110937688097149e+00 6.4620744414108771e+01 -3.6298638855161457e+01 -4.7742823859160453e+00 3.7406912242443603e+01 -3.4707237967856223e+01 -1.3923836915477867e+02 -3.1949861354799225e-01 8.5196019691898627e+01 
      </Row>
      <Row Index="15">
        -2.1190784947563582e+01 -6.2597576487539293e+01 1.2554399829232297e+02 -1.0588696352216439e+02 5.3014630566300411e+00 -4.3120747383980813e+00 -1.2596854860665462e+02 -2.7630675454384061e+01 -2.0115992897262572e+01 -2.8265774488282709e+01 3.0172644735374888e+01 -1.2234458070954594e+02 8.9495968706598887e+01 1.9472550653575174e+00 3.2315592342652053e+00 1.1044960373885499e+02 1.2134706539553463e+01 2.1080232093192439e+01 -1.3301607574481127e+02 -7.1360181728746397e+01 -2.2877117342045338e+02 1.8556885782945528e+01 3.4096969066652831e+00 -1.0894370735291325e+01 -1.2753400627207634e+02 2.3813747541731134e+00 -2.3461658746518648e+01 9.9435981319133589e+01 7.5912157121386031e+01 6.1011576566843530e+01 2.2894134186836631e+01 -7.9380390701802384e+00 7.4307915262469351e+00 5.1394003208447501e+01 1.1069058873083058e+01 2.2355571819386835e+01 -3.2348114348130252e+02 -4.8609923089115966e+01 -1.8448382595719667e+02 -3.5111875790883069e+01 1.4842556552076021e+00 7.9882760553315020e+00 -1.6506467160736172e+01 9.1712329005923277e-01 -7.1542637037831174e+00 -7.0496098365515581e+02 2.9253965428124943e+01 -7.5760092418937518e+01 7.6271992886723226e+01 7.2184569920747066e+00 -1.8705365723201103e-01 -6.3929895926561176e+02 -4.0244512974460399e+01 -4.3842311627623225e+01 -1.9023433454439797e+02 
      </Row>
      <Row Index="16">
        -4.1544283171184429e+02 -4.3770712157760386e+01 -2.6867249716526140e+02 -3.6040130369270386e+01 -2.9711823208108399e+00 -3.1733192735111182e+01 -4.7018199785441539e+01 -4.7097065243781367e+02 8.7962551443874872e+00 2.3177881911568722e+01 -3.6046536851226847e+00 9.1377615368515080e+01 4.4360571105817144e+00 2.9214464478432589e-01 7.9816811051832701e+00 1.2134705594816296e+01 1.1736906807914056e+02 2.8599755784045620e+00 4.0615778510234250e+01 3.2468774907040824e+01 6.4927665706504570e+01 -2.3354072536346848e+00 5.1910934426910682e-01 -1.0927684407153315e+01 -1.7553985132712167e+01 9.6051775104192117e+01 -1.5192362535644019e+01 1.7491304693525763e+02 2.3928461111974926e+00 9.5725480586484579e+01 8.9828993534006703e+00 9.2351149875458916e+00 4.8244315119918156e+01 4.2427079264417543e+01 1.6311814982966894e+02 8.5015113112623908e+00 -1.0511807636058114e+02 -2.7443781952034585e+00 1.8037407646917803e+01 -6.9742001059931651e+00 1.9884515857534579e+00 -1.0673343370757872e+01 1.9021351819614495e+01 1.1677293948502360e+02 4.5639071973600984e+00 -4.6888269461829287e+02 -8.2263951253995007e+00 7.5887257589611906e+01 -4.8301513892145472e+01 -1.6143517416639213e+01 1.0064458755252067e+01 -3.1780878497460343e+01 -1.0538549114735183e+03 -1.4830337048804139e+01 6.7779623890760286e+02 
      </Row>
      <Row Index="17">
        1.4649569404842717e+02 6.2730890419928016e+01 1.3072160237224233e+02 -8.8847054986973120e+01 -1.3350507289669622e-01 -4.4085587216994231e+00 -2.2518962468546306e+01 1.0082261919273515e+02 -1.0427204874426843e+02 -6.5442486275782898e+01 -3.2765384088648716e+01 -1.1780281176071367e+02 7.7558146547513388e+01 1.5926161609765401e+00 3.3057215310145693e-01 2.1080233125641826e+01 2.8599798832728993e+00 1.4429776719230910e+02 -1.9079026770744306e+02 6.0575438692894750e+01 -6.7001775072633379e+01 -6.3016518370424819e+01 2.5207277844862515e+00 -7.5133259264055621e+00 4.8038798187625202e+00 -4.7739899380373334e+00 4.1619910908200346e+01 1.0891354331213006e+02 -8.3213158071808408e+01 -6.1705865855766092e+01 7.7944368291099948e+01 -2.7591879534141803e+00 1.8483454087172504e+00 -1.6943261393328214e+01 -5.6449444832829087e+01 -2.9397074426893783e+00 -3.4947941248952679e+02 2.8048196803807802e+01 3.6084639251186388e+01 -2.7015113725044287e+01 1.9408085060883914e-01 5.5984644568554449e+00 3.8311226066823046e+01 2.5169931289016706e+01 -3.9246511424398321e+01 -8.8683777598793870e+02 -3.5095523600791616e+01 -5.1832119920309765e+01 -1.7345785888594531e+02 1.5363285837325975e+00 -2.1151097403822430e+01 -6.3091657551020333e+01 1.8535205285976139e+02 -2.0366147252451074e+02 -1.0081226271463973e+03 
      </Row>
      <Row Index="18">
        -1.6816704288243650e+03 -1.5667471462784025e+02 5.1610786868412708e+02 2.2144948884525601e+02 6.9252213891762949e+01 -6.2867659395739743e+01 8.4386606623476837e+01 -9.2849986954065389e+02 8.8344277346564922e+01 6.3611154413513043e+02 -2.5725319883204065e+01 -3.8783483086549677e+02 -8.0926627567445394e+01 -1.4301544119429082e+01 4.0316138459602371e+00 -1.3301610740271281e+02 4.0615658476366661e+01 -1.9079025070188800e+02 3.6303551501129559e+03 -1.7531850639921322e+02 -1.9579548810480067e+03 2.6487902165946434e+02 -2.2787108789635745e+01 -5.6224029925108425e+01 3.2095114642277842e+00 -2.6293928591349805e+02 -1.7089481191461402e+02 -3.4099707587434386e+03 3.0751722712588725e+02 2.0352085974869192e+03 -4.3977732655873393e+02 -6.0589367663758395e+01 1.3959082644803857e+02 9.7928747889697348e+01 8.8285022712329567e+02 1.4616292512298173e+02 9.1895568221285666e+03 -1.2941367277209441e+01 -7.9113423999908923e+02 4.9942670966847196e+01 1.5485112204997016e+00 -2.9320243723888893e+01 1.1236964227043609e+02 -3.1446838216176496e+02 3.9314356205348901e+01 2.7987416656811871e+04 3.8791697561821977e+01 -1.0721967258433997e+03 1.9200044733736416e+02 1.1127125769970735e+02 1.1332871468651776e+01 6.8918868497371034e+02 -1.1983423974382604e+03 2.8606306742374329e+02 2.7019472571426821e+04 
      </Row>
      <Row Index="19">
        8.3237933178114616e+01 1.3323754470709170e+02 -2.4740116956220625e+01 1.3930644450097307e+02 -1.0211430300644679e+01 4.7268819023663324e+00 1.2478645301502547e+02 -2.6045898087915702e+01 -4.6541439289093432e+01 -6.0355058632037519e+01 -6.3310652986852801e+01 1.6462118493216622e+01 -1.1659287452922763e+02 9.2198069204208366e-01 8.1786439597617573e+00 -7.1360180142602985e+01 3.2468781757888792e+01 6.0575437012857947e+01 -1.7531848987418221e+02 3.1024063170902537e+02 3.0056165865189706e+02 -1.0539626090952424e+02 -1.6632699070406805e+00 -1.2419504550263575e+01 5.3859629268544396e+01 2.5870206019057150e+01 1.1990273727681191e+02 2.4781385789229535e+02 -2.9589442707799168e+02 -2.5399288612920796e+02 2.7806045509182603e+01 1.0521032546534482e+01 1.1178660094159568e+01 -7.8300788152364504e+01 -3.0276630233560255e+01 -6.2898642891867517e+01 -3.0370810352272906e+02 1.1849942379073187e+02 3.1158382406456661e+02 -4.3200752724532165e+00 -5.0310737621272994e-01 -3.1280371001920502e+00 3.0330354926818622e+01 6.7025916633744046e+01 4.3256224173202558e+00 -1.4420565799644312e+03 -1.0423651130009550e+02 6.9487464670018426e+01 -2.6324831608044599e+02 -1.4245176506030248e+01 2.7864898865121990e+01 3.3612021281072919e+02 -1.3670526280099739e+02 -7.3306441377613908e+01 -1.3228434643420403e+03 
      </Row>
      <Row Index="20">
        1.0893403868646988e+03 2.6157656069286168e+02 -3.3734141819849724e+03 6.1682664919827221e+02 -1.3205685511374759e+02 2.2568001992842960e+02 4.4640865553999902e+02 3.5344814100330041e+02 1.2657196245327941e+02 -3.2655346035711108e+02 -7.1150378848105902e+01 2.8470890356076416e+03 -6.2768571628107748e+02 -1.8260901098917941e+00 1.0951384478973341e+02 -2.2877115403238713e+02 6.4927722696214914e+01 -6.7001782653154805e+01 -1.9579549216528762e+03 3.0056166604497412e+02 5.1876104242197280e+03 -4.5193095140044170e+02 8.0185751653890698e+00 1.4372980054480291e+02 4.1716125009312867e+02 5.4317757301591337e+02 1.9205132780239515e+02 2.4956947687237698e+03 -3.7307651078588185e+02 -2.7944025028318547e+03 1.9636063623430903e+02 1.4848005665882727e+02 -2.2879238696739776e+02 -5.0867280597770673e+02 -8.1603285379770227e+02 -1.6854635479648095e+02 -2.6903506522935745e+03 1.7405207590388289e+02 2.1866135672874943e+03 2.8771412446416639e+02 -5.2408613900073142e+00 -7.1407844629384229e+01 -1.0279034570926390e+01 3.2764648863551321e+02 6.0895159802592559e+01 -1.3718081530375950e+04 -1.0961269129228774e+02 2.9277501214210515e+03 -1.0437690025918173e+03 -2.3379359730062697e+02 5.2776362547518761e+02 1.2097872320770769e+03 -3.7806915344332538e+01 1.4267662833184039e+02 -1.1560752652753868e+04 
      </Row>
      <Row Index="21">
        -1.8897363606959328e+02 -1.1268923097302468e+02 3.6546327325751571e+02 -1.9230843756869248e+02 1.9370407235197035e+01 -7.3948653131319944e+01 -7.3114936982645304e+01 -1.3908514723289954e+02 4.1097660978292879e+01 5.1353859582047043e+01 4.3383422086117207e+01 -2.5586901468056385e+02 1.7975876277801399e+02 6.8613794572069509e-02 -1.1187178432013752e+01 1.8556883121629653e+01 -2.3354150172817754e+00 -6.3016517628977454e+01 2.6487903403873764e+02 -1.0539626235345895e+02 -4.5193095466175328e+02 2.6871786089796115e+02 -7.9075506876470680e-01 6.1683959678005023e+00 -2.0684225898244986e+01 -4.9896298664242750e+01 -1.5187312386072284e+02 -3.0633194866105441e+02 1.4054592344909736e+02 2.3523406648546452e+02 -1.3194765031229315e+02 -2.1985797504872792e+01 3.6727127403838495e+01 8.6063003513227827e+01 1.2310734763176333e+02 8.9802002016214061e+01 4.6368605932047871e+02 -7.7679702905767812e+01 -4.1314191828279706e+02 -1.3062895845460300e+01 7.1998038845394674e-01 1.0386736016050307e+01 -5.8287720354229293e+01 -6.1159154860890368e+01 2.2989213908239652e+00 1.9187654035499052e+03 5.3780109280499680e+01 -2.9340428858370717e+02 4.7657650308382881e+02 3.3816458957749091e+01 -1.0437384422368261e+02 -8.7762714518095990e+01 -1.7394241076864432e+02 5.8512890148893000e+01 1.6261308080104604e+03 
      </Row>
      <Row Index="22">
        1.0479239672410660e+01 -2.2834718254067639e+00 8.4516752513831772e-01 -7.4854423866789084e+00 3.8488862992427642e-01 -4.6577737638963956e-01 -8.2542860045679731e+00 -4.7264156675345248e-01 -4.6979397372200538e-01 -7.2393865685471672e+00 2.2088991445193642e+00 1.7668804968992617e+00 5.5011439111560207e+00 1.6190679113504303e-01 3.0320363685035545e-01 3.4096968796923761e+00 5.1910916963856835e-01 2.5207278152249160e+00 -2.2787108952373131e+01 -1.6632699338630630e+00 8.0185752003192761e+00 -7.9075508176492804e-01 1.6638145929922656e+00 1.0449827248560482e+00 1.8372863646154474e+00 4.1616347307432022e+00 7.1714065900080881e-01 1.6555227188595893e+01 2.6573792036807644e+00 -1.7638901755695539e+01 3.9549155839236896e+00 -1.6647278724390016e+00 -7.5833635447907000e-01 5.0899071608650752e+00 -3.8835054102507818e+00 -1.4930562145164004e+00 2.8093099953272652e+01 -1.5286774490577719e+00 -5.1324637778100222e+00 -2.7600709554632656e+00 1.6639102772754583e-01 2.5727825649610059e-01 -1.6411273293910067e-01 1.4389149628802578e+00 -1.3459270463567075e-01 3.0727346663892064e+01 9.7662287429967465e-01 9.5149660466515229e+00 2.4986715461775599e+00 2.1041905372730696e-01 -5.5039288559168009e-01 -6.5456507028319013e+00 -2.5483220938186246e+00 -4.9441124831718000e+00 4.7007555439523003e+01 
      </Row>
      <Row Index="23">
        4.6099617384586963e+01 -2.6992948980678193e+00 -6.2016286457519875e+01 -4.4773422991868701e+00 -2.6030171143922871e+00 -1.4907425977527829e+01 -3.1187428677621938e+00 -1.6066666327785697e+00 1.1265370597550827e+01 1.8114693357737046e+01 3.2085167957557132e+00 1.2572724946965172e+02 5.6246649971299121e+00 -5.3728561377131712e-01 9.4932881637469109e+00 -1.0894369783365619e+01 -1.0927681049726743e+01 -7.5133264931282611e+00 -5.6224028661091225e+01 -1.2419504226165373e+01 1.4372979908261004e+02 6.1683963650598344e+00 1.0449827248609154e+00 3.5989197089019626e+01 2.3782616480207786e+01 6.2142288679442572e+00 -1.1389068296102081e+01 6.7429168135678083e+01 1.0407454818762915e+01 -8.2479428224143490e+01 -3.9623077127778021e+00 2.0411023386714056e+00 -2.6128943756130866e+01 5.2318260554224327e-01 -2.0587680403279307e+01 2.6346895306996885e+00 -2.3658515490966741e+02 -3.7917035275901325e+00 2.1353668541500053e+01 8.1903435559121753e+00 -3.4021326906047705e-01 2.5883919653829244e+00 -1.4788551319947233e+01 4.4245476315800243e+00 3.0049433204043101e+00 -7.6963927687384637e+02 5.2376063774128347e+00 1.0874976477154189e+02 2.2241597871549992e+01 -3.9005303079594000e+00 3.4959205698571999e-01 5.7709180076971286e+01 -3.4970801310630755e+01 6.3942679904478563e+00 -7.0944813845882754e+02 
      </Row>
      <Row Index="24">
        2.7979456468806109e+02 1.0137859342888714e+02 -2.7165642774586439e+02 -1.9574455858598903e+01 -9.2693127419835832e+00 -3.6464408969004872e+01 1.5142801839395315e+02 1.4530056808832876e+02 3.5552851424878554e+01 -7.7731227984819981e+01 -5.8273328394116106e+01 1.7114159473578502e+02 -3.9848777310394325e+01 8.3889748307454859e-01 -1.4742481828238851e+01 -1.2753400556068618e+02 -1.7553984464984751e+01 4.8038822057364996e+00 3.2094293485053536e+00 5.3859633911978790e+01 4.1716129615899536e+02 -2.0684232024669541e+01 1.8372862733798456e+00 2.3782618936318439e+01 3.3433123223488991e+02 -4.2481332153423637e+00 4.5148496730594651e+01 -1.2923409705476365e+02 -8.2865937153025698e+01 -1.7817970668318489e+02 4.9722879244360435e+01 5.2335372882656683e+00 -5.3081739023455157e+00 -1.3684731150861154e+02 -8.2197928325102112e+01 -6.1629154868175192e+01 2.4794899491915086e+02 7.0543222730220691e+01 8.5752136692065250e+01 1.7808285293864483e+01 -2.3151623129850907e+00 5.1351773665451059e+00 2.9900727308305726e+01 4.1533909451365318e+01 3.0010021753470184e-01 7.5008271339992723e+02 -3.7719479805115398e+01 2.5575626324566721e+02 -1.7484843884971028e+01 -6.9152769517763204e+00 -9.7231105056446026e+01 1.1133321584329369e+03 2.4910426943459743e+02 4.6951188367757819e+00 -2.8238807387026662e+02 
      </Row>
      <Row Index="25">
        -2.5476713687330653e+02 -2.3264204622246325e+00 -5.3875029940922627e+02 3.6250366510544261e+01 -1.9809117306861026e+01 -4.6722050898170117e+01 -4.3411232212920368e+01 -7.3648350917743937e+02 1.5280010273977496e+01 -2.6929637825915336e+01 3.1071921395443496e+01 3.5438118725373351e+02 -3.9007786221063725e+01 -8.7203701550484425e-01 1.8287222009385005e+01 2.3813729934609000e+00 9.6051773746454273e+01 -4.7739980963706330e+00 -2.6293905441492097e+02 2.5870192351961123e+01 5.4317746255970997e+02 -4.9896283707200382e+01 4.1616350747817705e+00 6.2142223278831388e+00 -4.2481343367324893e+00 2.9639570457434820e+02 1.9198739815750589e+01 4.7611146880726119e+02 -1.8864561654030695e+01 -2.3736326329920939e+02 3.1931142935483251e+01 2.9195065560190155e+01 2.8559437801694003e+01 5.1078988719869656e+01 6.9771063433889992e+01 -1.9995570487684745e+01 2.1133845614531833e+02 -3.7586056433942949e+00 2.5196502198517300e+02 9.5543009797667828e+00 1.1100992346655307e+00 2.5144002134067018e+00 8.4310039313365479e+00 3.4955487412943597e+02 1.4512405075882871e+01 -6.9324912185437813e+02 6.1441630637915701e-01 3.7474422491073392e+02 -7.6899520090682273e+01 -4.9717873124425523e+01 2.6384971837217499e+01 1.7289670622200852e+01 -2.1293551098481757e+03 -2.9466636581837866e+00 1.7571141388671592e+03 
      </Row>
      <Row Index="26">
        1.6549030131670889e+02 1.0390101685996160e+02 -5.2288258882493345e+01 1.2546637845956184e+02 -9.9373863032276404e+00 2.4940447364913471e+01 6.6497236005039667e+01 7.9801399448246684e+01 -2.9121716677585027e+01 -4.6980328011522147e+01 -3.5655995715169411e+01 2.4386462144837424e+01 -1.1505637282420230e+02 4.9528326575992665e-01 3.2898682871982601e+00 -2.3461657572282093e+01 -1.5192358592343226e+01 4.1619910369652644e+01 -1.7089481434571007e+02 1.1990273786538091e+02 1.9205132861615766e+02 -1.5187312372984024e+02 7.1714065894161649e-01 -1.1389068172440515e+01 4.5148493836666169e+01 1.9198747525156705e+01 1.3932449742112954e+02 1.6079982199155074e+02 -1.4168976779145669e+02 -1.6307677156725978e+02 7.1668627480576774e+01 9.4078051786380321e+00 -1.0841095361630323e+01 -6.4168254508996569e+01 -7.1178837070489010e+01 -8.7845025577640627e+01 -1.6405707796584971e+02 7.5992154418176199e+01 1.9448182739332438e+02 -1.8121168878902854e+00 -7.5346738011009440e-01 3.1085175891998604e+00 3.4371609246676414e+01 6.0751400058798318e+01 6.4670786752112042e-01 -8.7793542364544453e+02 -5.2360111711451964e+01 9.4908128210789499e+01 -2.3012902444586922e+02 -1.4509141521447305e+01 2.7030073341575768e+01 1.7082511202326236e+02 4.0753505252993811e+01 -3.3066082686971541e+01 -8.0096255528204210e+02 
      </Row>
      <Row Index="27">
        -1.2088080617503009e+02 1.2033839546027593e+01 -1.3380228981945500e+03 1.2482412190298783e+02 -9.4200386611337308e+01 8.6170704356179911e+01 -1.4331446983219939e+02 -4.6130490207039838e+02 -2.3485675335250562e+01 -5.9939712420857745e+01 4.9326754040666856e+01 8.6824563689006027e+02 -2.0999420913477661e+02 2.3237923311936584e+00 4.7352104970079381e+01 9.9436017474858090e+01 1.7491319431061856e+02 1.0891350821295055e+02 -3.4099703608411073e+03 2.4781385531509295e+02 2.4956945296429913e+03 -3.0633190781855956e+02 1.6555227575598110e+01 6.7429158501370836e+01 -1.2923420089386781e+02 4.7611175751588598e+02 1.6079980588788749e+02 4.5466992081124918e+03 -2.5961602048575878e+02 -1.6615504365177671e+03 2.7302156632875187e+02 1.1863694172370153e+02 -1.1326983079701313e+02 7.0892161177655439e+01 -3.4042812799010983e+02 -1.2309622571757063e+02 -1.1114905022793650e+04 -1.2979731890230006e-01 1.1250503316906713e+03 6.9548982022647948e+01 3.7520571326826673e+00 -1.1962485364892899e+01 -1.3766196277485315e+02 5.1776449455549277e+02 -1.0533759081700083e+01 -3.5690050740649640e+04 -3.9718523344615129e+01 1.2406535487347139e+03 -5.4844285890797789e+02 -2.0049332170716298e+02 2.2705830991027548e+02 -7.7085696322505669e+02 -1.8951013360759875e+03 -1.2072391515420992e+02 -3.1091807006361138e+04 
      </Row>
      <Row Index="28">
        -3.2378262116790074e+02 -2.1185919054967962e+02 4.2743093332879653e+01 -1.3010939138014692e+02 1.1584648132713937e+01 -1.3961239028998552e+01 -1.4487806721703964e+02 -1.9095178672200836e+02 7.4990194097529638e+01 1.2764003967617043e+02 7.3925940979323059e+01 -3.1352958848103299e+01 1.0939228262532924e+02 -2.7174189750941977e+00 -2.9207075460726628e+00 7.5912154456140343e+01 2.3928365415340522e+00 -8.3213157627993496e+01 3.0751725693272601e+02 -2.9589443007778209e+02 -3.7307652496750961e+02 1.4054592477425194e+02 2.6573792455824332e+00 1.0407453806514082e+01 -8.2865930908622346e+01 -1.8864580100710555e+01 -1.4168976868069331e+02 -2.5961608900104511e+02 3.4428989107918460e+02 3.4564049228831442e+02 -6.7171766641407132e+01 -9.9978473905725505e+00 3.0398181808559457e+00 1.1396328699177901e+02 1.4824238078799024e+02 6.6298718287074735e+01 5.4166200747604569e+02 -1.3211381118732811e+02 -3.5422147167538657e+02 5.2407873095249515e+00 9.4821043719581066e-01 2.0521973576798835e-01 -3.1265576462345678e+01 -6.1734515933985413e+01 5.2393907868492704e+00 1.8978741002867157e+03 1.0772023820988315e+02 -1.3057852172468034e+02 2.9081994153833188e+02 1.1811270637618236e+01 -1.2270589298224973e+01 -3.8304535312050479e+02 -2.5468357674771585e+02 1.0228923694785014e+02 2.1537707005351917e+03 
      </Row>
      <Row Index="29">
        -1.9143993705278506e+03 -2.1761341290429118e+02 6.4654768250425695e+02 -3.0010834306780816e+02 4.3403813526776503e+01 -9.9920343465352516e+01 -1.9061542505290709e+02 -1.0981512682735265e+03 6.8507212284814159e+01 5.7451817342332265e+02 1.6398639900347916e+01 -1.0925562983691489e+03 1.9340455750048568e+02 -8.1311434336637660e+00 -4.9675558399860165e+01 6.1011561230101506e+01 9.5725434567022603e+01 -6.1705865237134276e+01 2.0352087711192435e+03 -2.5399290113651659e+02 -2.7944025677957979e+03 2.3523407269180098e+02 -1.7638901479238484e+01 -8.2479433411748843e+01 -1.7817967292646063e+02 -2.3736335035814409e+02 -1.6307677581661119e+02 -1.6615508021557034e+03 3.4564049324346706e+02 2.6260666493757080e+03 -8.8129455801690483e+01 -1.9281002117294150e+01 1.4412883402696752e+02 3.1375140995417638e+02 9.5590031024348571e+02 7.5289479995582951e+01 2.5243663260545604e+03 -1.0066330754213929e+02 -1.1994015561552919e+03 -6.8555922321278203e+01 4.0984419550708804e+00 1.1791396092823243e+01 2.2208548523305389e+01 -1.7027221723458052e+02 -5.9844634725522781e+00 1.0508062648431584e+04 8.0880457881825976e+01 -1.4471773726982319e+03 4.1999236898693545e+02 5.1486654334700688e+01 -2.0991665805033364e+02 -2.0890116159309594e+02 -1.6335471512719525e+03 8.0544348235156775e+01 1.0614711798586201e+04 
      </Row>
      <Row Index="30">
        3.2360556655765430e+02 7.1566842826257925e+01 -3.2134572575751008e+02 -1.3798614045846625e+02 -1.6633590798927344e+01 1.2088521261285674e+01 9.2118474482595047e+00 1.7715468360450541e+02 -3.4042976731943781e+00 -1.8384455376043573e+02 -3.2320728921869886e+01 7.6009237704514817e+01 2.7291054869237996e+01 4.0991514976913166e+00 -7.6948669750527188e+00 2.2894136780902045e+01 8.9829079912524321e+00 7.7944368419533930e+01 -4.3977736661598283e+02 2.7806048933402053e+01 1.9636065324883202e+02 -1.3194765208615718e+02 3.9549155193562910e+00 -3.9623064751902888e+00 4.9722873571929085e+01 3.1931159265004680e+01 7.1668628630439343e+01 2.7302164418175744e+02 -6.7171767639010795e+01 -8.8129459080540897e+01 2.1332796735623498e+02 1.4779978802200041e+01 -1.5500619686335995e+01 -6.4076141452239455e+01 -1.1786028087109567e+02 -8.7155796830717009e+01 -7.7372613199356499e+02 3.3013579736497540e+01 1.1943051664735670e+02 -3.1167075767859618e+01 2.5135641571221856e-01 6.3653584272925166e+00 3.4589628973152216e+01 4.3165656927695025e+01 -1.3788667824824651e+01 -1.9131039164763672e+03 -2.5757163194878068e+01 2.1917092194131948e+02 -1.4154385120938431e+02 -2.4140902894629107e+01 -3.8834370105999824e+01 3.3111199043387757e+01 3.6037550112601025e+02 -1.1495171761839907e+02 -2.0490862764138983e+03 
      </Row>
      <Row Index="31">
        -4.5867776540085231e+01 4.6605881229324950e+00 -1.5406937055336039e+02 2.3779864531228327e+01 -1.1593112264763590e+01 6.3625224031319476e+00 1.5066442611836010e+01 -7.3341372769841314e+01 7.3082019347937148e+00 1.6166754586538467e+01 -1.0567553485070675e+00 8.5964462756499415e+01 -3.1100315358954504e+01 -8.5542596699196505e-01 2.4221021915855090e+00 -7.9380384455398598e+00 9.2351175768453686e+00 -2.7591891080255664e+00 -6.0589346343326724e+01 1.0521031616053051e+01 1.4848004569958721e+02 -2.1985795869166168e+01 -1.6647278419918621e+00 2.0411017618457383e+00 5.2335351955607621e+00 2.9195070822779599e+01 9.4078044030161436e+00 1.1863692414775505e+02 -9.9978449638656457e+00 -1.9280990269509680e+01 1.4779976379464363e+01 1.6400001270365589e+01 -5.8973407865987610e+00 -7.3276880935737969e+00 1.3225186413451423e+01 -9.6108784232364997e+00 -1.4562046132439616e+02 4.7517435748205816e+00 8.0314292476430055e+01 1.2843854242368774e+01 -7.7767669902298331e-01 -9.0540511305733651e-01 -6.7554671896478622e+00 2.4987901146286092e+01 1.8477163708351811e+00 -6.8960298637582082e+02 -2.6614740742846106e+00 8.0751576008068241e+01 -4.6606509932155809e+01 -1.9074009998558154e+01 1.4405943380223903e+01 3.3293755396130187e+01 -1.8078962585655864e+02 8.8259550868042691e+00 -4.3171366191929985e+02 
      </Row>
      <Row Index="32">
        -1.9763794343248622e+02 -1.6068158737420163e+01 6.9798553536638792e+01 -4.9309869437401630e+01 8.0353389505949053e+00 -4.7638731432289433e+01 -2.0946678731492284e+01 -2.1425601273962729e+02 3.1532676152528438e-01 -1.4607650410470633e+01 -5.2165724484802922e-01 -1.4182236351699976e+02 3.6012952116190718e+01 1.1701116907194447e+00 -7.5561522661519120e+00 7.4307891939861292e+00 4.8244308629298757e+01 1.8483446162281325e+00 1.3959087482427094e+02 1.1178656585836507e+01 -2.2879240731616301e+02 3.6727129818711546e+01 -7.5833627935617187e-01 -2.6128945152135465e+01 -5.3081693100866687e+00 2.8559425822440062e+01 -1.0841096753518286e+01 -1.1326991167057713e+02 3.0398202527794638e+00 1.4412884310724809e+02 -1.5500620955985742e+01 -5.8973429686012491e+00 6.1601913481546035e+01 2.4955390211982255e+01 8.3110566728397217e+01 6.5613724449503934e+00 4.0487839571578718e+02 -2.0251741214954366e+00 -1.1279164159222974e+02 -2.2061153580638681e+01 1.3339654440131985e+00 -2.5696579216808502e-01 1.6042172097967175e+01 2.9964120032285162e+01 -5.3830455399885402e-02 1.3860711569129871e+03 -3.0401856550338713e+00 -1.2153957904219129e+02 6.6655042089641967e+01 7.6422330382670225e+00 -4.8395205215405213e+01 1.4212277623480194e+01 -4.7209923716834862e+02 -8.5657100295019042e+00 1.6868383268971611e+03 
      </Row>
      <Row Index="33">
        -5.2216289687095775e+02 -9.8409726437464997e+01 2.5858325628641251e+02 -6.7860237933710323e+01 1.3781933268386638e+01 -2.2393009339748119e+01 -1.9275984833155599e+02 -4.1871805506561759e+02 1.1490930769250554e+00 1.4604532764267617e+02 5.6278884831684991e+01 -2.1907564429509512e+02 8.3560104273452453e+01 -3.0092899010743572e+00 -2.4930937627141248e+00 5.1394001028560524e+01 4.2427075222985877e+01 -1.6943264694478785e+01 9.7928861393262196e+01 -7.8300794969962226e+01 -5.0867286059170692e+02 8.6063010680048137e+01 5.0899073157802377e+00 5.2317935843061480e-01 -1.3684730894582390e+02 5.1078981914743053e+01 -6.4168258153319584e+01 7.0892008229684507e+01 1.1396329479262204e+02 3.1375144867864327e+02 -6.4076148223443539e+01 -7.3276913147383311e+00 2.4955394861141031e+01 2.5602100218749058e+02 1.9311388220159341e+02 4.8618146353936027e+01 2.2270295931054358e+02 -6.4122036647875817e+01 -2.7462136751224745e+02 -2.7035950293136139e+01 2.2478760168878589e+00 -2.5857670095937308e+00 -6.9589834570324513e+01 5.3043277666955362e+00 1.8120082187520792e+00 4.5737739237024260e+02 4.6135217729040164e+01 -2.8194328819792287e+02 1.4734736113259510e+02 3.4222107600786558e+00 -7.1288109045685815e+00 -3.7302916642180583e+02 -8.5556835080512678e+02 8.6240288467148218e+00 1.3352410369047091e+03 
      </Row>
      <Row Index="34">
        -1.3978431538831312e+03 -1.7204762366271461e+02 6.0901150031277211e+00 -1.5779126487215763e+01 -6.2504151494977123e-01 -9.0561132515411373e+01 -1.1204499340297480e+02 -1.5596007342453195e+03 3.3180648304118222e+01 3.5843332914502594e+02 1.2400122487946646e+01 -1.8666128625115380e+02 4.4619092330416606e+01 -5.2119636307715496e+00 8.7992772263678489e+00 1.1069050925965712e+01 1.6311813291092403e+02 -5.6449455147099798e+01 8.8285058451260556e+02 -3.0276652508535335e+01 -8.1603301656478288e+02 1.2310736880751392e+02 -3.8835048809523869e+00 -2.0587690518665781e+01 -8.2197917603232781e+01 6.9771034778605099e+01 -7.1178848256095080e+01 -3.4042862270808109e+02 1.4824240454891697e+02 9.5590042258108133e+02 -1.1786030079927082e+02 1.3225175740792466e+01 8.3110579223884997e+01 1.9311387782817110e+02 8.0758183732108967e+02 4.7694117893115617e+01 9.2742243952758395e+02 -4.1580863665091250e+01 -3.6078023372378624e+02 -6.7829875677254119e+00 1.6510549680220850e+00 1.1165197719933564e+01 2.7540351136682666e+01 1.9873697785278213e+02 1.5410503331630636e+01 2.9051206738316214e+03 1.7269108202319607e+01 -4.0447364944453307e+02 1.9778131006688881e+02 -6.4266229421377830e+00 -2.7127325932493477e+01 1.8798694810727810e+00 -3.2272722865555997e+03 7.0852114692656627e+01 5.5358702103465384e+03 
      </Row>
      <Row Index="35">
        -1.1523763658135373e+02 -5.4365607944379008e+01 1.5225378779895800e+02 -2.9402479071158041e+01 9.6759757293988287e+00 -8.9379157732030308e+00 -5.6549429802766099e+01 -5.3944356751932219e+01 -3.9427734928247446e+01 5.2875353313089946e+01 2.4395294429783462e+01 -5.4683902149908135e+01 7.2326405649079788e+01 -1.0493007319291294e+00 2.3683446890581763e+00 2.2355570910919596e+01 8.5015084776150616e+00 -2.9397073696163716e+00 1.4616293687340294e+02 -6.2898643875090329e+01 -1.6854636066366857e+02 8.9802002631634195e+01 -1.4930562015334772e+00 2.6346891516027022e+00 -6.1629152844277996e+01 -1.9995575974763369e+01 -8.7845025921927117e+01 -1.2309624966193951e+02 6.6298718431886300e+01 7.5289481007234116e+01 -8.7155796712338059e+01 -9.6108792129988441e+00 6.5613720168712462e+00 4.8618144098211587e+01 4.7694111335909653e+01 9.8312885895319596e+01 1.3208506224932714e+02 -4.8604098256047131e+01 -1.1311617885430927e+02 2.1779838967731759e+00 2.1052351048350282e-01 -2.8043452287475392e+00 -1.2595691343390813e+01 -3.0172743338812829e+01 -9.2638543039514865e+00 5.5180872570185477e+02 2.9140301607285046e+01 -1.1605750822769313e+02 8.9520122686398835e+01 1.5772988194119307e+01 3.8467901934675410e+00 -2.1586853288611729e+02 -6.3869234455722037e+01 -9.5691737367008756e+00 6.1721731911322991e+02 
      </Row>
      <Row Index="36">
        -9.7674593780237240e+02 -1.1892536603612825e+02 7.1148144961846992e+02 4.4173612032132223e+02 1.1740716956555843e+02 -1.4533655911659298e+02 1.8265361476526596e+02 -1.4474662951820646e+03 2.0588717347505735e+02 1.4472222264431821e+01 1.5400698749767616e+02 -5.6872535373875871e+02 -2.4742477763281204e+02 -3.1865695332122414e+01 1.8056500731734559e+01 -3.2348128698754590e+02 -1.0511866119038314e+02 -3.4947931176400743e+02 9.1895563210706459e+03 -3.0370815973903518e+02 -2.6903502455923008e+03 4.6368597076757578e+02 2.8093100069352658e+01 -2.3658514799398154e+02 2.4794938635826111e+02 2.1133732141373912e+02 -1.6405705239635427e+02 -1.1114906348492135e+04 5.4166182749392465e+02 2.5243652979776325e+03 -7.7372590260363393e+02 -1.4562055524735453e+02 4.0487813392688986e+02 2.2270239477513678e+02 9.2742063082201503e+02 1.3208499590307474e+02 5.0017155311293980e+04 2.1316143111049314e+01 -1.1632394305136343e+03 1.5030817789779444e+01 -2.4967999306898143e+00 -5.8580539378106607e+01 2.5652615023498191e+02 -6.2902738738275707e+02 1.1658177978839933e+02 1.3457009300124273e+05 1.1804815436026743e+02 -1.4205990666859161e+03 3.5261982116270485e+02 1.6088100530863449e+02 -2.6683081479131943e+01 2.1223715787825531e+03 -1.8984356203518946e+03 5.2140704301134053e+02 1.3166234749904985e+05 
      </Row>
      <Row Index="37">
        1.1028168746100881e+02 9.4380085065495223e+01 -7.8128261190542617e+01 7.6869577708601128e+01 -4.9058745997886604e+00 8.1520774094924491e+00 8.5225737152320107e+01 7.2266895426881092e+01 -1.4953053756653503e+01 -3.4446727104541282e+01 -4.8820147818398254e+01 5.1441036507982062e+01 -7.4077133106972724e+01 3.3933526532338831e-01 1.1867659923404972e+00 -4.8609922630453411e+01 -2.7443771151811234e+00 2.8048197308794897e+01 -1.2941388889409609e+01 1.1849942512018083e+02 1.7405208782773047e+02 -7.7679704435353415e+01 -1.5286774718160814e+00 -3.7917028693188648e+00 7.0543222075129052e+01 -3.7586035860991842e+00 7.5992155157932757e+01 -1.2976705188134474e-01 -1.3211381259129575e+02 -1.0066331519770506e+02 3.3013580942635663e+01 4.7517442856634160e+00 -2.0251749701988047e+00 -6.4122036469975995e+01 -4.1580863840059585e+01 -4.8604098696304845e+01 2.1316036932340612e+01 7.2778902165417165e+01 1.6336276589189112e+02 8.5261259322443195e+00 -6.5903067407594640e-01 -9.9898337459603703e-01 1.8470479199553807e+01 2.2226507002738472e+01 -8.6578091044867089e-01 -3.7836029077606788e+01 -5.0430946974704661e+01 7.5884265840504696e+01 -1.4941252744057886e+02 -5.4545711777906547e+00 7.4562907267269907e+00 2.9415951719414431e+02 1.1169882083844570e+02 -2.5750724525138505e+01 -2.5334461292024957e+02 
      </Row>
      <Row Index="38">
        4.7350745773164545e+02 2.2685918591369409e+02 -1.2799920714551117e+03 5.8154172088676933e+02 -6.6022971295284151e+01 1.9552639264090840e+02 3.6618206098941300e+02 1.3947309519954615e+02 -1.7264873193907988e+01 -1.0926100301440889e+02 -8.4750316848934744e+01 1.1463052874056739e+03 -4.6754011479490146e+02 -3.1849381749704975e+00 5.2454461485220236e+01 -1.8448381741026242e+02 1.8037434394485899e+01 3.6084634415063192e+01 -7.9113422182808426e+02 3.1158382561097824e+02 2.1866135516919239e+03 -4.1314191467457749e+02 -5.1324637348398028e+00 2.1353668240938909e+01 8.5752115340990713e+01 2.5196507435551393e+02 1.9448182594839818e+02 1.1250503981521688e+03 -3.5422146231282386e+02 -1.1994015122591736e+03 1.1943050615000527e+02 8.0314296866107171e+01 -1.1279163011526543e+02 -2.7462134094396151e+02 -3.6078015246118105e+02 -1.1311617535936239e+02 -1.1632394378908291e+03 1.6336276014071973e+02 1.6361560097090914e+03 1.7099284047365074e+02 -3.3998398857375616e+00 -4.7197606457889158e+01 8.2103317198751782e+01 2.1848657695908082e+02 1.2704177467505417e+01 -6.3226409635722957e+03 -1.2044478978701308e+02 1.0386164592728212e+03 -9.2767509189715861e+02 -1.1618453297039287e+02 3.7874401554318774e+02 6.5549864429263414e+02 -2.2699299667391136e+02 1.4151535182782240e+00 -5.2932615869583406e+03 
      </Row>
      <Row Index="39">
        -6.4077361996907541e+01 5.2449238482731744e+00 -1.9956594006858813e+02 1.0109872318886494e+02 -8.0132477059418079e+00 3.5260549902778848e+01 5.3929290805813253e+01 -1.6878672797852232e+00 1.8101633074041729e+01 6.4303962822085992e+01 -9.1531106923703192e+00 1.8660132620479772e+02 -7.6320595641720047e+01 -2.3064419273792574e+00 8.2840178348142217e+00 -3.5111874988792579e+01 -6.9741981729357576e+00 -2.7015114014136543e+01 4.9942669694010874e+01 -4.3200751141243927e+00 2.8771412464530886e+02 -1.3062895782315195e+01 -2.7600709522816942e+00 8.1903435930306614e+00 1.7808283452535761e+01 9.5543047729893260e+00 -1.8121169366011145e+00 6.9548990037514159e+01 5.2407879004422284e+00 -6.8555920253462290e+01 -3.1167076373648612e+01 1.2843854616369542e+01 -2.2061152915813864e+01 -2.7035948383636054e+01 -6.7829821301876851e+00 2.1779841364395907e+00 1.5030805877979258e+01 8.5261254639113417e+00 1.7099284103798024e+02 5.1933935371987417e+01 -7.1126092140910979e-01 -1.0252585691935812e+01 -7.6956719794449020e+00 -4.9641318204352558e-01 2.3788071727727313e+00 -4.1765455265606136e+02 7.1128983638490384e-01 1.1826862957133278e+02 -6.5501655923290429e+01 -1.6689637067532715e+01 6.7495000937009422e+01 1.2899018859414460e+02 -3.1400215448351524e+01 5.4047690170080180e+01 -3.7480767132993441e+02 
      </Row>
      <Row Index="40">
        -9.3087348043058853e+00 -1.2660728964947339e+00 -8.8255197870216762e-01 -2.4632497823786750e+00 6.5570607745448228e-01 -8.9870990407169948e-01 -3.2057033028370370e+00 -6.0879868647050444e+00 2.9585153371586159e-01 -3.0450571542088828e-01 3.0561242912324360e-01 -1.4322246573701705e+00 1.5547445859236007e+00 3.8176037127623019e-02 2.1172086479805330e-01 1.4842556252715013e+00 1.9884515397195628e+00 1.9408079145790680e-01 1.5485131396840188e+00 -5.0310748936355765e-01 -5.2408623302528667e+00 7.1998051368673543e-01 1.6639103031942071e-01 -3.4021332386173153e-01 -2.3151622859123222e+00 1.1100991624360788e+00 -7.5346744289959133e-01 3.7520546184458965e+00 9.4821057564797684e-01 4.0984426457637806e+00 2.5135629365172552e-01 -7.7767674979160284e-01 1.3339655322135826e+00 2.2478760389338284e+00 1.6510551096975075e+00 2.1052355118536070e-01 -2.4967904811348682e+00 -6.5903068177236257e-01 -3.3998403373468573e+00 -7.1126095484493845e-01 2.2060323463766232e-01 -2.4446502708582435e-01 9.4360776791114231e-01 8.5268584300202011e-01 1.9872513883605780e-02 -4.8917986091383325e-01 2.1960466582259502e-01 -1.4813039315745762e+00 1.2072327218215002e+00 5.1291168500132756e-01 9.3062135457643080e-02 -8.6172282924580887e+00 -1.4303465921878185e+01 -6.6909281383578034e-01 1.8666147484451304e+01 
      </Row>
      <Row Index="41">
        5.2820295749947903e+01 1.9892666272349970e+00 6.5153548208009283e+01 -2.6890895672154613e+01 -6.7560067360346920e-01 -2.2515923496551810e+01 -5.1364668655576793e+00 -5.0346174274874159e+01 -5.0834461480517064e+00 -1.4409214763960872e+01 3.3151263348054272e-01 -4.9423259700258541e+01 2.6329712453418097e+01 9.2608867675183171e-02 -2.5584803850733806e+00 7.9882758103412357e+00 -1.0673343242701776e+01 5.5984637848245598e+00 -2.9320225260741040e+01 -3.1280380575528568e+00 -7.1407853233636047e+01 1.0386737203936619e+01 2.5727828059353897e-01 2.5883914636615062e+00 5.1351774060933622e+00 2.5144006633145182e+00 3.1085170147767371e+00 -1.1962507571597541e+01 2.0522114793106994e-01 1.1791403331581389e+01 6.3653570744200412e+00 -9.0540548038754731e-01 -2.5696474134460345e-01 -2.5857663383321281e+00 1.1165200721454692e+01 -2.8043448223814949e+00 -5.8580450598874769e+01 -9.9898350222810173e-01 -4.7197610402745248e+01 -1.0252585964556443e+01 -2.4446501962969164e-01 1.2817839579302678e+01 4.5257946703038172e+00 3.1387907542591304e+01 -1.4445860640743593e+00 -6.8156875657727397e+01 2.6710170958856194e-01 -2.4978931988943053e+01 5.5397922915623155e+01 2.8833980192124784e+00 -3.6608073258042459e+01 -6.5689613718555595e+00 -1.6145778411492370e+02 -1.0794118666520630e+01 5.0895274614536476e+01 
      </Row>
      <Row Index="42">
        1.2168405398240701e+01 1.3428174238055362e+01 -7.4625246231134952e+01 1.5896282338087076e+01 3.8409635597583929e+00 -1.0427626301441023e+01 6.9956795800576401e+01 -8.8986172235947606e+01 -3.4021478668209511e+01 -4.3568914622949137e+01 -1.8210887974219077e+01 5.7082294254834778e+01 1.2587965071543294e-01 5.0577829683883380e-01 1.1559167051185796e+01 -1.6506468109732850e+01 1.9021348557969759e+01 3.8311226445029206e+01 1.1236963994461803e+02 3.0330354590141269e+01 -1.0279029261862888e+01 -5.8287721223241078e+01 -1.6411272092614126e-01 -1.4788551218042620e+01 2.9900729689547006e+01 8.4309979163504067e+00 3.4371609493430697e+01 -1.3766197047101741e+02 -3.1265577455636958e+01 2.2208541575253719e+01 3.4589630270358185e+01 -6.7554676342273421e+00 1.6042170487765361e+01 -6.9589837969745872e+01 2.7540340607794356e+01 -1.2595691806600371e+01 2.5652615695968507e+02 1.8470479859896187e+01 8.2103318479678933e+01 -7.6956716916859111e+00 9.4360771160509715e-01 4.5257940797584268e+00 2.1748806505543007e+02 2.2199320407924095e+01 -5.3917784556473123e+00 1.0400960151369879e+03 -2.2467195179794881e+01 4.0207711708889079e+01 -1.0291453339944294e+02 8.3638235506766705e+00 2.0382113660220057e+01 3.8821435759042112e+02 -2.0438254670356955e+02 -5.8478701555251774e+01 8.5098287975413064e+02 
      </Row>
      <Row Index="43">
        -2.0216343190002215e+02 2.2647425845392718e+01 -2.9505267079276382e+02 3.8206573157962339e+01 -1.8018823764341505e+01 -8.5679006499427373e+01 -3.5978294008687953e+01 -1.1944154731503495e+03 -3.5873470216953137e+01 -3.2029298687115329e+01 -8.2194866605350398e+00 1.9267317820721473e+02 1.5648543494553451e+00 -6.8482329935705977e-01 1.0098079455692641e+01 9.1712057994118368e-01 1.1677294388722657e+02 2.5169914255538970e+01 -3.1446792534052838e+02 6.7025891333461004e+01 3.2764627152463254e+02 -6.1159125058122754e+01 1.4389156178267513e+00 4.4245349322998759e+00 4.1533904290430655e+01 3.4955488784924910e+02 6.0751385080306136e+01 5.1776394858636195e+02 -6.1734478602840682e+01 -1.7027203614216603e+02 4.3165622597260835e+01 2.4987892121080868e+01 2.9964146447492567e+01 5.3043471360323338e+00 1.9873705526146483e+02 -3.0172732221632032e+01 -6.2902518024195012e+02 2.2226502231691086e+01 2.1848647660183633e+02 -4.9642045153687597e-01 8.5268608430947879e-01 3.1387907692051613e+01 2.2199332892122243e+01 9.2553732066478688e+02 2.2141667741696551e+00 -2.6160385241711347e+03 -2.7745311695447935e+01 2.5525850263790861e+02 -1.7837168932700678e+00 -3.9288705936463202e+01 -4.4902088724001942e+01 6.4258122625808042e+01 -4.0477197242629672e+03 -4.4209292403112457e+01 1.5626089478626120e+03 
      </Row>
      <Row Index="44">
        -4.0810615269831317e+01 -1.1586505136754568e+01 -7.8519540860535017e+01 3.4646064742128942e+01 -1.2596304793810305e+00 -2.4712588857966011e-01 9.1598593797571084e+00 -5.3600481976547030e+01 3.1670866774846445e+01 1.1353369786201473e+01 1.0100410991548415e+01 6.4508852974748606e+01 -3.2995230650628400e+01 -3.3994443546923137e-01 1.5617188509932021e+00 -7.1542640496106742e+00 4.5639058257293073e+00 -3.9246511653127527e+01 3.9314367743320872e+01 4.3256215082974450e+00 6.0895154489949164e+01 2.2989220280411473e+00 -1.3459268483694586e-01 3.0049429680172568e+00 3.0010089290044561e-01 1.4512402556956204e+01 6.4670748496314445e-01 -1.0533777785612529e+01 5.2393914442109235e+00 -5.9844609494018073e+00 -1.3788668230781596e+01 1.8477158704177168e+00 -5.3830379616101709e-02 1.8120073888234174e+00 1.5410500898358714e+01 -9.2638541265951062e+00 1.1658184197541718e+02 -8.6578082147264013e-01 1.2704174536907772e+01 2.3788069791973703e+00 1.9872497727674757e-02 -1.4445862851821687e+00 -5.3917781926997179e+00 2.2141611161173955e+00 1.5894886453337278e+01 2.4214407501235647e+02 3.1307411059555661e+00 4.8726741829064764e+01 2.0674713358359774e+01 -2.6649299205179204e+00 9.5357347791202187e+00 2.9289951927211014e+01 -1.1610248716688048e+02 5.3260284756885376e+01 3.7803506676831654e+02 
      </Row>
      <Row Index="45">
        -1.7368947682149010e+03 -3.0275960532855242e+02 5.0310598642518744e+03 -4.0588552913151216e+02 5.4977434202295262e+02 -7.5553684536454966e+02 4.1151562106888741e+02 -2.1675240633999929e+03 5.1980015405546874e+02 -4.8852016591651227e+02 1.9696047605201602e+02 -4.2051424499573186e+03 6.7444602365978062e+02 -5.0825495531037632e+01 -1.4103041550377384e+02 -7.0496138843451627e+02 -4.6888433409575373e+02 -8.8683747055521235e+02 2.7987414612550754e+04 -1.4420566966766492e+03 -1.3718080065454822e+04 1.9187651114383480e+03 3.0727345959458034e+01 -7.6963923864753588e+02 7.5008382749557495e+02 -6.9325230953632854e+02 -8.7793532859347761e+02 -3.5690053670276888e+04 1.8978735394477844e+03 1.0508059515279019e+04 -1.9131032257066254e+03 -6.8960323520656084e+02 1.3860703880316578e+03 4.5737578318663873e+02 2.9051155120683889e+03 5.5180852186586708e+02 1.3457008986729968e+05 -3.7835721977739013e+01 -6.3226407885333756e+03 -4.1765450710066943e+02 -4.8920669482134826e-01 -6.8157124081473739e+01 1.0400959838841081e+03 -2.6160446865588892e+03 2.4214389349563862e+02 3.8160129532402498e+05 3.8450309808220140e+02 -6.5662891623563028e+03 2.8559703480087228e+03 9.3936728043525363e+02 -1.0284966298931977e+03 5.7984302424558045e+03 3.2450412195940953e+02 1.0874638634589728e+03 3.6365858221325721e+05 
      </Row>
      <Row Index="46">
        -6.5327356916655617e+01 -6.3909618402351953e+01 3.1335184291974656e+01 -4.3822155988360237e+01 3.2075327932639084e+00 -2.3527441003385547e+00 -5.5586955900708290e+01 -1.8175077701456985e+01 2.4588321880404692e+01 3.2204329182433050e+01 3.6111816799855660e+01 -1.8648781500267432e+01 3.7957848679313429e+01 -6.0189013248541023e-01 -2.1110940944317917e+00 2.9253964894793626e+01 -8.2263972672244563e+00 -3.5095523350795247e+01 3.8791700974410560e+01 -1.0423651179122703e+02 -1.0961269366137230e+02 5.3780109454568446e+01 9.7662287622529220e-01 5.2376062233963427e+00 -3.7719478449304006e+01 6.1441207068628501e-01 -5.2360111831119866e+01 -3.9718534724085657e+01 1.0772023796227586e+02 8.0880456740023661e+01 -2.5757162752522262e+01 -2.6614745666239514e+00 -3.0401862571438869e+00 4.6135215937971196e+01 1.7269102541059439e+01 2.9140301523487324e+01 1.1804817772334725e+02 -5.0430946650733048e+01 -1.2044479145436389e+02 7.1128970705626671e-01 2.1960463447858714e-01 2.6710141706636392e-01 -2.2467195057487984e+01 -2.7745319896054809e+01 3.1307409045359549e+00 3.8450317728784478e+02 4.2743109162778744e+01 -3.9578431193971959e+01 1.1845184549779225e+02 2.9727659654489003e+00 -6.2521345415201495e+00 -1.6971825705255179e+02 -1.8133106636045255e+00 4.3418047091203427e+01 4.3430049004628944e+02 
      </Row>
      <Row Index="47">
        6.4294656815048234e+02 1.2995620782701008e+02 -2.3459746885107161e+03 1.9677900469758788e+02 -7.5489590716691055e+01 5.9916055409035380e+01 1.7048324092197436e+02 -6.5620865248809423e+01 1.0684655506053787e+02 -2.8009067465104977e+02 -3.6067913586070063e+01 1.8774077872948765e+03 -2.6483052689967735e+02 1.9422914587238154e+00 6.4620747907545592e+01 -7.5760083621735248e+01 7.5887282701602089e+01 -5.1832125181324955e+01 -1.0721966950793721e+03 6.9487464680616540e+01 2.9277500972921189e+03 -2.9340428381359015e+02 9.5149661131317771e+00 1.0874976399820460e+02 2.5575624154911202e+02 3.7474427423281122e+02 9.4908126043526863e+01 1.2406535943696508e+03 -1.3057851103464782e+02 -1.4471773252252228e+03 2.1917091074678274e+02 8.0751579760094842e+01 -1.2153956744817333e+02 -2.8194326207256108e+02 -4.0447357082335321e+02 -1.1605750427546445e+02 -1.4205990059383344e+03 7.5884259796496508e+01 1.0386164544847493e+03 1.1826862860985432e+02 -1.4813034911748573e+00 -2.4978928239193351e+01 4.0207710182284472e+01 2.5525859649337372e+02 4.8726744766340971e+01 -6.5662891369695717e+03 -3.9578429032035373e+01 1.9658113798189690e+03 -4.9349901631565319e+02 -1.3110452768495406e+02 2.2888723619333905e+02 5.9644844990964884e+02 -6.4795160300679981e+02 6.7905083416356831e+01 -4.5537534208634288e+03 
      </Row>
      <Row Index="48">
        1.7233266902537366e+01 -1.9436328163780854e+02 7.7335553528956370e+02 -4.4355868655410359e+02 3.4512490864498432e+01 -2.0021889235947037e+02 -1.6195585183135336e+02 -3.2545994288248858e+02 1.3117116062652713e+02 -7.5302718260014345e+01 8.6759078255854547e+01 -5.7927917129164780e+02 3.9106145678166286e+02 4.6325740443677930e+00 -3.6298640668839653e+01 7.6271987844545947e+01 -4.8301526039678720e+01 -1.7345785950224308e+02 1.9200051759012058e+02 -2.6324832094915837e+02 -1.0437690318734276e+03 4.7657650638764881e+02 2.4986716264706956e+00 2.2241595853781796e+01 -1.7484833777867607e+01 -7.6899543006142267e+01 -2.3012902621372086e+02 -5.4844298513210015e+02 2.9081994318953366e+02 4.1999237904914946e+02 -1.4154385205782432e+02 -4.6606513574480829e+01 6.6655041105130294e+01 1.4734735143600687e+02 1.9778128431803191e+02 8.9520122789064771e+01 3.5262020395086051e+02 -1.4941252529222845e+02 -9.2767510859106733e+02 -6.5501656785719547e+01 1.2072325397217192e+00 5.5397921023295112e+01 -1.0291453033050368e+02 -1.7837651676800306e+00 2.0674712920377715e+01 2.8559714916144276e+03 1.1845184598453322e+02 -4.9349903463634365e+02 1.1896990925271946e+03 7.0578231573339735e+01 -3.1007807550639973e+02 -2.2208039208995564e+02 -7.2103542259521612e+02 1.7946907232600938e+02 2.6627192581509603e+03 
      </Row>
      <Row Index="49">
        6.4429368881901013e+01 -3.8447029579092487e+00 2.3039490006389769e+02 -2.9529943174983600e+01 1.3457547816074793e+01 -9.8969547320345441e+00 -1.1466586368314893e+01 1.0157302276128087e+02 -1.0917095246494227e+01 -1.5354488865196936e+01 -8.2376116415252909e-01 -1.3175782491548307e+02 4.1954308966645840e+01 1.0287851697274810e+00 -4.7742828154159724e+00 7.2184561406243120e+00 -1.6143520822512073e+01 1.5363302139626285e+00 1.1127122658187091e+02 -1.4245175073164319e+01 -2.3379358123580005e+02 3.3816456581639159e+01 2.1041900867737695e-01 -3.9005294562543247e+00 -6.9152740900035496e+00 -4.9717880074743789e+01 -1.4509140380583631e+01 -2.0049329479767994e+02 1.1811267160661373e+01 5.1486637511211455e+01 -2.4140899474327043e+01 -1.9074009926385621e+01 7.6422299964169724e+00 3.4222063812663350e+00 -6.4266374300126969e+00 1.5772987062247012e+01 1.6088086673040686e+02 -5.4545701875011900e+00 -1.1618452640574344e+02 -1.6689636509864059e+01 5.1291161631401772e-01 2.8833975357949271e+00 8.3638229176822279e+00 -3.9288717691416764e+01 -2.6649306125746648e+00 9.3936691089810336e+02 2.9727652459365608e+00 -1.3110452200720181e+02 7.0578226407829604e+01 2.6481955595727868e+01 -2.6155502705788535e+01 -3.4743489136688396e+01 2.6760296226334333e+02 -8.2420577596427140e+00 5.3370991618377275e+02 
      </Row>
      <Row Index="50">
        -1.7066317560945242e+02 -9.2108187196026847e+00 -3.2445521549373007e+02 2.5069730841564183e+02 -7.6660785185858913e+00 1.3938493558688322e+02 3.9861433473176476e+01 4.5430301776851820e+01 -6.5253935329201340e+00 1.0284470132467821e+02 4.5395308925199060e+00 3.8037543052766614e+02 -1.5910741526058791e+02 -2.5258426531991116e+00 3.7406912694253151e+01 -1.8705188146213914e-01 1.0064462108730368e+01 -2.1151097717182893e+01 1.1332867816024191e+01 2.7864899052417968e+01 5.2776362336515103e+02 -1.0437384382490904e+02 -5.5039288585044233e-01 3.4959207944072990e-01 -9.7231108794439933e+01 2.6384978150179450e+01 2.7030073130668825e+01 2.2705832516558712e+02 -1.2270588191491697e+01 -2.0991665379024778e+02 -3.8834371084695533e+01 1.4405943966397132e+01 -4.8395203990194204e+01 -7.1288073161501302e+00 -2.7127316342053998e+01 3.8467907339982048e+00 -2.6683111654939751e+01 7.4562897550081857e+00 3.7874401537416725e+02 6.7495000703570497e+01 9.3062199327224010e-02 -3.6608072697181697e+01 2.0382112946611898e+01 -4.4902076004067169e+01 9.5357350347501892e+00 -1.0284967312594458e+03 -6.2521342681220826e+00 2.2888723645295983e+02 -3.1007807318591813e+02 -2.6155503566280345e+01 2.7734251891416352e+02 -1.9300483191666925e+02 1.1687811123715747e+02 4.7455843464187936e+01 -6.7750524474524320e+02 
      </Row>
      <Row Index="51">
        2.3909615077601947e+02 3.6738411037260812e+02 -9.4476142857798550e+02 2.6792041005098054e+02 -2.6375534132362645e+01 -9.4176723494129192e+01 7.6261196713335448e+02 -3.2705598761854617e+01 1.5361240893215472e+02 -6.1269125212224651e+00 -2.1024757644829515e+02 6.2480058976571308e+02 -3.4043736972611441e+02 -5.7850328608595660e+00 -3.4707237687151064e+01 -6.3929896034111516e+02 -3.1780886601940438e+01 -6.3091650405980545e+01 6.8918846323803155e+02 3.3612022393771349e+02 1.2097873739022853e+03 -8.7762733919305902e+01 -6.5456508847778423e+00 5.7709186894089875e+01 1.1133321655167383e+03 1.7289655880091232e+01 1.7082512054080325e+02 -7.7085671427632587e+02 -3.8304537244538369e+02 -2.0890127326462857e+02 3.3111217790953958e+01 3.3293759671767333e+01 1.4212260428916125e+01 -3.7302918370514948e+02 1.8798087684198066e+00 -2.1586853968161813e+02 2.1223705837742295e+03 2.9415952096396353e+02 6.5549870639520918e+02 1.2899019467767727e+02 -8.6172285374751834e+00 -6.5689634546036473e+00 3.8821435129500935e+02 6.4258097973082613e+01 2.9289949486595503e+01 5.7984274368069136e+03 -1.6971826094194643e+02 5.9644851430216090e+02 -2.2208042975164699e+02 -3.4743494970276743e+01 -1.9300481874889601e+02 5.0563492047025920e+03 -1.4722202825569101e+02 1.4954085893178373e+02 1.8146943724277728e+03 
      </Row>
      <Row Index="52">
        5.8808324183651894e+03 4.9466989149246365e+02 2.2261155396463000e+03 -3.5022272120392881e+02 8.4867417076449783e+01 8.3496929153283054e+02 5.9846228604641510e+02 1.0816478444519082e+04 -4.0557700530160218e+01 -1.0519282694854687e+03 -1.4997588827146683e+02 -1.2185631151864072e+03 -8.5198513288400136e+01 2.3939499407955225e+01 -1.3923835948819760e+02 -4.0244473925471539e+01 -1.0538548653975595e+03 1.8535216118462267e+02 -1.1983456041112076e+03 -1.3670507452945458e+02 -3.7805411933222786e+01 -1.7394261273484153e+02 -2.5483267784147756e+00 -3.4970711242482196e+01 2.4910425331792794e+02 -2.1293550571274100e+03 4.0753609092178522e+01 -1.8950972476731113e+03 -2.5468381975346711e+02 -1.6335483134255846e+03 3.6037571640164697e+02 -1.8078954866127242e+02 -4.7209939185816620e+02 -8.5556841435289425e+02 -3.2272726014811342e+03 -6.3869305149419233e+01 -1.8984514271070211e+03 1.1169884059942797e+02 -2.2699227824619447e+02 -3.1400164831303300e+01 -1.4303466392716873e+01 -1.6145777347874036e+02 -2.0438263585859931e+02 -4.0477194314856661e+03 -1.1610251933427298e+02 3.2445956525698784e+02 -1.8133660411751862e+00 -6.4795092135825325e+02 -7.2103571814433849e+02 2.6760285950930120e+02 1.1687819911541737e+02 -1.4722234225536886e+02 2.8893824239494272e+04 -1.6537135501479804e+02 -2.7868110047946764e+04 
      </Row>
      <Row Index="53">
        -2.2646063384784156e+02 -7.2072716006372502e+01 -1.9016235989135748e+02 1.8852516299582794e+02 -2.8696805189867973e+00 2.3379104253612013e+01 5.8559000137083785e+01 -9.9075069577550948e+01 1.4719916784138422e+02 1.2160316561442465e+02 3.5721276014726755e+01 1.6192479615088087e+02 -1.6728571748787181e+02 -3.1994831826436751e+00 -3.1949928484209522e-01 -4.3842312686029800e+01 -1.4830342196954007e+01 -2.0366147233936681e+02 2.8606308226837973e+02 -7.3306443143156685e+01 1.4267662181396190e+02 5.8512890669141143e+01 -4.9441124513700743e+00 6.3942674520159883e+00 4.6951214682303544e+00 -2.9466734598845505e+00 -3.3066083174270716e+01 -1.2072395036272246e+02 1.0228923712837422e+02 8.0544346825195987e+01 -1.1495171709926572e+02 8.8259538216942559e+00 -8.5657112867338583e+00 8.6240247871231759e+00 7.0852101547471946e+01 -9.5691737375182129e+00 5.2140713756424475e+02 -2.5750723931473942e+01 1.4151489062642213e+00 5.4047689903250614e+01 -6.6909288513921039e-01 -1.0794119473459460e+01 -5.8478701349053608e+01 -4.4209312636224809e+01 5.3260284424889903e+01 1.0874641554354594e+03 4.3418047332329380e+01 6.7905078247660754e+01 1.7946907099016522e+02 -8.2420559682628891e+00 4.7455843344213008e+01 1.4954086597100579e+02 -1.6537122313949641e+02 3.0860942348339694e+02 1.1766830611739824e+03 
      </Row>
      <Row Index="54">
        -7.1554399883262286e+03 -9.0233571985363960e+02 1.4127262438014150e+03 2.0587501086259726e+02 3.9284093517344445e+02 -1.3374694123941881e+03 -6.5531533693335950e+02 -1.2512388524846174e+04 4.7590531934564933e+02 3.8849383089747062e+02 4.7792630837112665e+02 -1.8332620658944361e+03 4.8841972108976915e+02 -7.1376841682889790e+01 8.5195804241579026e+01 -1.9023476096638478e+02 6.7779461117554456e+02 -1.0081224426040426e+03 2.7019473891556729e+04 -1.3228437717987690e+03 -1.1560752818661742e+04 1.6261307381737279e+03 4.7007559517049231e+01 -7.0944819496838750e+02 -2.8238698929920793e+02 1.7571110091288574e+03 -8.0096257212758064e+02 -3.1091814029704314e+04 2.1537704114522785e+03 1.0614709984910733e+04 -2.0490858322677377e+03 -4.3171398201832562e+02 1.6868377461519558e+03 1.3352395547788183e+03 5.5358655622693568e+03 6.1721719694044441e+02 1.3166236066901110e+05 -2.5334433907874336e+02 -5.2932621717848233e+03 -3.7480768208669906e+02 1.8666122166316882e+01 5.0895025193036417e+01 8.5098293913884845e+02 1.5626027079553169e+03 3.7803492412732157e+02 3.6365862789902237e+05 4.3430047137036490e+02 -4.5537541649684717e+03 2.6627184701642973e+03 5.3371037947223522e+02 -6.7750524218630744e+02 1.8146973731183957e+03 -2.7868067106054164e+04 1.1766829123761449e+03 3.7917687380520557e+05 
      </Row>
    </InverseHessian>
  </Weights>
</MethodSetup>
